<?xml version="1.0"?>
<opencv_storage>
<cascade>
  <stageType>BOOST</stageType>
  <featureType>LBP</featureType>
  <height>74</height>
  <width>52</width>
  <stageParams>
    <boostType>GAB</boostType>
    <minHitRate>9.9900001287460327e-01</minHitRate>
    <maxFalseAlarm>5.0000000000000000e-01</maxFalseAlarm>
    <weightTrimRate>9.4999999999999996e-01</weightTrimRate>
    <maxDepth>1</maxDepth>
    <maxWeakCount>100</maxWeakCount></stageParams>
  <featureParams>
    <maxCatCount>256</maxCatCount>
    <featSize>1</featSize></featureParams>
  <stageNum>20</stageNum>
  <stages>
    <!-- stage 0 -->
    <_>
      <maxWeakCount>2</maxWeakCount>
      <stageThreshold>-4.2259451001882553e-02</stageThreshold>
      <weakClassifiers>
        <_>
          <internalNodes>
            0 -1 19 -500105217 -13434881 -196654 -129 250937215
            -1341980673 -621740033 -1</internalNodes>
          <leafValues>
            -8.5294115543365479e-01 9.2771083116531372e-01</leafValues></_>
        <_>
          <internalNodes>
            0 -1 42 -179571713 -213740472 268685459 -653098493
            -1073635159 -2012741504 -1014922577 -539751576</internalNodes>
          <leafValues>
            -9.6997028589248657e-01 8.2015436887741089e-01</leafValues></_></weakClassifiers></_>
    <!-- stage 1 -->
    <_>
      <maxWeakCount>2</maxWeakCount>
      <stageThreshold>-1.1637511104345322e-01</stageThreshold>
      <weakClassifiers>
        <_>
          <internalNodes>
            0 -1 28 -582687828 -781565839 1073762379 -779648765
            -805127478 -1660747767 -670268789 -72363125</internalNodes>
          <leafValues>
            -8.7951809167861938e-01 8.6180424690246582e-01</leafValues></_>
        <_>
          <internalNodes>
            0 -1 5 -1580080646 -251424495 270535065 -786447935 218301113
            193495170 302482327 -1212970349</internalNodes>
          <leafValues>
            -7.6766520738601685e-01 7.6314294338226318e-01</leafValues></_></weakClassifiers></_>
    <!-- stage 2 -->
    <_>
      <maxWeakCount>3</maxWeakCount>
      <stageThreshold>-1.0036730766296387e+00</stageThreshold>
      <weakClassifiers>
        <_>
          <internalNodes>
            0 -1 75 -117079804 1342243328 403 1363530242 1078014337
            33024 -536510325 -214965554</internalNodes>
          <leafValues>
            -8.8259959220886230e-01 8.2878643274307251e-01</leafValues></_>
        <_>
          <internalNodes>
            0 -1 23 -146613281 -1071931238 1660977419 -268304128
            270790911 -359661406 -133592853 -24448342</internalNodes>
          <leafValues>
            -8.7988728284835815e-01 7.6712036132812500e-01</leafValues></_>
        <_>
          <internalNodes>
            0 -1 49 -2138704641 -654213102 285315097 -721321911
            -1056667493 -2147221359 -800421713 -24069912</internalNodes>
          <leafValues>
            -8.5368865728378296e-01 7.5881385803222656e-01</leafValues></_></weakClassifiers></_>
    <!-- stage 3 -->
    <_>
      <maxWeakCount>2</maxWeakCount>
      <stageThreshold>-1.1076541990041733e-01</stageThreshold>
      <weakClassifiers>
        <_>
          <internalNodes>
            0 -1 52 -804801781 -787103615 -2080273921 -784629367
            -1039621203 -930971174 -2013157240 -129439607</internalNodes>
          <leafValues>
            -8.4881210327148438e-01 7.9201483726501465e-01</leafValues></_>
        <_>
          <internalNodes>
            0 -1 35 -779880129 385945907 1091567925 -847183735
            -263993153 -1149173710 -2004313637 249481390</internalNodes>
          <leafValues>
            -7.9373866319656372e-01 7.3804670572280884e-01</leafValues></_></weakClassifiers></_>
    <!-- stage 4 -->
    <_>
      <maxWeakCount>5</maxWeakCount>
      <stageThreshold>-1.0972701311111450e+00</stageThreshold>
      <weakClassifiers>
        <_>
          <internalNodes>
            0 -1 76 -4274 -143687809 -1 -1052674 -6336 2138931063 -4107
            -1</internalNodes>
          <leafValues>
            -7.9226070642471313e-01 8.0934220552444458e-01</leafValues></_>
        <_>
          <internalNodes>
            0 -1 55 -251547177 -708734895 -2129575593 -585822191
            -267902533 -1316454262 -786329368 -594804352</internalNodes>
          <leafValues>
            -8.7783730030059814e-01 7.0336145162582397e-01</leafValues></_>
        <_>
          <internalNodes>
            0 -1 17 -414975077 -930955246 1610617105 1901379975
            1368066363 1082163210 1082239625 -666901</internalNodes>
          <leafValues>
            -7.9826140403747559e-01 7.3347914218902588e-01</leafValues></_>
        <_>
          <internalNodes>
            0 -1 69 -950935085 -795508587 -805305083 406864001
            -268334422 -1828683640 1376944795 273016603</internalNodes>
          <leafValues>
            -8.0729407072067261e-01 6.9821578264236450e-01</leafValues></_>
        <_>
          <internalNodes>
            0 -1 34 -733349645 -717123575 138944513 1912602881
            -1063739224 -1174405120 -1996259125 -87494392</internalNodes>
          <leafValues>
            -8.0453503131866455e-01 6.7287343740463257e-01</leafValues></_></weakClassifiers></_>
    <!-- stage 5 -->
    <_>
      <maxWeakCount>5</maxWeakCount>
      <stageThreshold>-8.3950108289718628e-01</stageThreshold>
      <weakClassifiers>
        <_>
          <internalNodes>
            0 -1 80 -3702012 -11 -1 -2 -172556 -32771 -79873 -17</internalNodes>
          <leafValues>
            -7.2344690561294556e-01 7.8866475820541382e-01</leafValues></_>
        <_>
          <internalNodes>
            0 -1 45 -112598641 -1828667198 -1073659513 -587104231
            34056427 -612236670 -2109620005 -89591143</internalNodes>
          <leafValues>
            -7.5935178995132446e-01 7.1906042098999023e-01</leafValues></_>
        <_>
          <internalNodes>
            0 -1 7 -888472677 1092485394 -939523315 -686227326
            1073868872 143130753 1208126297 -1009800317</internalNodes>
          <leafValues>
            -6.9896012544631958e-01 7.1953886747360229e-01</leafValues></_>
        <_>
          <internalNodes>
            0 -1 46 -250482281 1033339091 -1052703993 398492697
            -117390913 445128840 -803999458 579611310</internalNodes>
          <leafValues>
            -8.0997341871261597e-01 6.1508500576019287e-01</leafValues></_>
        <_>
          <internalNodes>
            0 -1 50 -686706241 -1774141303 8651013 -513916798 -653737751
            -2147467135 134807693 -91389813</internalNodes>
          <leafValues>
            -6.7791825532913208e-01 7.3373216390609741e-01</leafValues></_></weakClassifiers></_>
    <!-- stage 6 -->
    <_>
      <maxWeakCount>4</maxWeakCount>
      <stageThreshold>-3.5883122682571411e-01</stageThreshold>
      <weakClassifiers>
        <_>
          <internalNodes>
            0 -1 26 -870384673 -754974205 4719621 -721370941 -1056292209
            -1610539008 1375994126 -138435909</internalNodes>
          <leafValues>
            -7.8118163347244263e-01 7.5438594818115234e-01</leafValues></_>
        <_>
          <internalNodes>
            0 -1 53 -91782261 -183205176 -1055702963 -716144369
            -1188852085 -1852079998 -628088149 -294868083</internalNodes>
          <leafValues>
            -7.9400044679641724e-01 6.2957662343978882e-01</leafValues></_>
        <_>
          <internalNodes>
            0 -1 16 -804208189 -753856351 1090525585 -1253621759
            142610603 -1163913080 -1811873637 1908222091</internalNodes>
          <leafValues>
            -7.9563504457473755e-01 6.4804035425186157e-01</leafValues></_>
        <_>
          <internalNodes>
            0 -1 61 1431425436 -737914879 16781385 -754900983 1342210202
            -1862205439 1174716649 -326591544</internalNodes>
          <leafValues>
            -8.5526663064956665e-01 5.8857649564743042e-01</leafValues></_></weakClassifiers></_>
    <!-- stage 7 -->
    <_>
      <maxWeakCount>5</maxWeakCount>
      <stageThreshold>-9.6430402994155884e-01</stageThreshold>
      <weakClassifiers>
        <_>
          <internalNodes>
            0 -1 36 -1407189537 -287309825 -8388610 -16842754 -4 -1
            1107427326 -37</internalNodes>
          <leafValues>
            -6.8121439218521118e-01 8.0848962068557739e-01</leafValues></_>
        <_>
          <internalNodes>
            0 -1 64 -791284913 1229606986 1342242895 907411663
            1074397545 1090682944 -645889905 1805312239</internalNodes>
          <leafValues>
            -7.3419702053070068e-01 6.5489184856414795e-01</leafValues></_>
        <_>
          <internalNodes>
            0 -1 51 -708728385 1510543441 16843029 -595492667
            -1073577799 -1449131901 11110637 -47874047</internalNodes>
          <leafValues>
            -6.7145091295242310e-01 7.2260731458663940e-01</leafValues></_>
        <_>
          <internalNodes>
            0 -1 11 -716049445 -545144316 1359020073 -1476100081
            1342644363 -1575944192 1094861193 1166393994</internalNodes>
          <leafValues>
            -6.8841248750686646e-01 6.7628931999206543e-01</leafValues></_>
        <_>
          <internalNodes>
            0 -1 39 -1861103394 -787333104 16843028 -854940910
            -1727952725 805372161 -1584807265 -374831060</internalNodes>
          <leafValues>
            -9.4281983375549316e-01 4.9632915854454041e-01</leafValues></_></weakClassifiers></_>
    <!-- stage 8 -->
    <_>
      <maxWeakCount>5</maxWeakCount>
      <stageThreshold>-1.0157092809677124e+00</stageThreshold>
      <weakClassifiers>
        <_>
          <internalNodes>
            0 -1 8 -1069353193 26218496 -2147385215 -1996111103
            138559491 1267236997 1627488257 -82859389</internalNodes>
          <leafValues>
            -7.7517563104629517e-01 7.1069180965423584e-01</leafValues></_>
        <_>
          <internalNodes>
            0 -1 81 -343933089 2139062250 -1094713345 577895293
            -134217729 -1073743873 2147483647 2000680635</internalNodes>
          <leafValues>
            -6.2863433361053467e-01 7.3726713657379150e-01</leafValues></_>
        <_>
          <internalNodes>
            0 -1 58 -799811334 1946157188 -1877633711 -645332599
            -2113683025 -1466433152 -2129952639 -341267952</internalNodes>
          <leafValues>
            -7.6399153470993042e-01 6.2422925233840942e-01</leafValues></_>
        <_>
          <internalNodes>
            0 -1 25 -213401410 -1874739055 1073742229 -1191108525
            541688507 805306378 1165899 -1171058557</internalNodes>
          <leafValues>
            -7.3880094289779663e-01 6.1544984579086304e-01</leafValues></_>
        <_>
          <internalNodes>
            0 -1 79 -1047858722 1350946898 328 273793097 -2013163363
            -2096627710 -2146918261 285386498</internalNodes>
          <leafValues>
            -8.1154191493988037e-01 5.2499175071716309e-01</leafValues></_></weakClassifiers></_>
    <!-- stage 9 -->
    <_>
      <maxWeakCount>4</maxWeakCount>
      <stageThreshold>-4.6441277861595154e-01</stageThreshold>
      <weakClassifiers>
        <_>
          <internalNodes>
            0 -1 21 1367429527 1343557789 16847133 -234880937
            -2130640213 -1198514038 687898795 -1162829160</internalNodes>
          <leafValues>
            -8.9258313179016113e-01 7.0409053564071655e-01</leafValues></_>
        <_>
          <internalNodes>
            0 -1 30 1364457919 -766300027 1426063373 -208666605
            -872246871 -91717502 -1010755507 734538283</internalNodes>
          <leafValues>
            -7.7567434310913086e-01 6.6956436634063721e-01</leafValues></_>
        <_>
          <internalNodes>
            0 -1 66 -900775097 -1342095337 -1071558247 -1014382590
            -1073692659 -1879015415 -2013033589 -315650933</internalNodes>
          <leafValues>
            -7.9009568691253662e-01 5.8208751678466797e-01</leafValues></_>
        <_>
          <internalNodes>
            0 -1 6 -2003596267 -805191678 1 -1072594799 100696714
            -2130706431 100488 1263489062</internalNodes>
          <leafValues>
            -8.2348150014877319e-01 5.7841187715530396e-01</leafValues></_></weakClassifiers></_>
    <!-- stage 10 -->
    <_>
      <maxWeakCount>5</maxWeakCount>
      <stageThreshold>-7.7555370330810547e-01</stageThreshold>
      <weakClassifiers>
        <_>
          <internalNodes>
            0 -1 2 -1426084301 184352759 -1225851393 -301989891
            1291713980 217907136 -22668 -269090825</internalNodes>
          <leafValues>
            -6.7967146635055542e-01 7.5118708610534668e-01</leafValues></_>
        <_>
          <internalNodes>
            0 -1 37 -742356007 -785317744 1073778693 -577616517
            -771642961 -2147385216 -1476355957 -341825300</internalNodes>
          <leafValues>
            -6.5682107210159302e-01 6.9281369447708130e-01</leafValues></_>
        <_>
          <internalNodes>
            0 -1 73 -464270981 1494724620 -1006563304 -435449596
            -780094050 -385875840 -536751990 1888543343</internalNodes>
          <leafValues>
            -8.0174803733825684e-01 5.9286481142044067e-01</leafValues></_>
        <_>
          <internalNodes>
            0 -1 57 1477702047 -1857748734 1360609619 -716685311
            536905867 -1995833344 1073850762 -1199238655</internalNodes>
          <leafValues>
            -6.0585755109786987e-01 7.8375124931335449e-01</leafValues></_>
        <_>
          <internalNodes>
            0 -1 77 -1555840596 -1056964224 0 197122 -1853783896
            -2146828286 302252041 -1152654453</internalNodes>
          <leafValues>
            -7.6242882013320923e-01 6.1890965700149536e-01</leafValues></_></weakClassifiers></_>
    <!-- stage 11 -->
    <_>
      <maxWeakCount>5</maxWeakCount>
      <stageThreshold>-8.7649512290954590e-01</stageThreshold>
      <weakClassifiers>
        <_>
          <internalNodes>
            0 -1 14 1853881343 1929183231 -1342771203 2147483647
            1191182335 83886079 939359735 -1073741825</internalNodes>
          <leafValues>
            -6.1302679777145386e-01 7.6620823144912720e-01</leafValues></_>
        <_>
          <internalNodes>
            0 -1 47 -984899073 -1853775147 16844048 -174624294
            -1291275871 -1971290080 1526860288 -69566272</internalNodes>
          <leafValues>
            -6.9507855176925659e-01 6.4632129669189453e-01</leafValues></_>
        <_>
          <internalNodes>
            0 -1 32 -787887657 -70156275 16842883 -650198747 -897400445
            -1333231350 1224745641 241094305</internalNodes>
          <leafValues>
            -7.1305966377258301e-01 6.0124295949935913e-01</leafValues></_>
        <_>
          <internalNodes>
            0 -1 71 -536769848 -787644208 -2130706368 2063925251
            -888962631 -2113765215 167904272 19907243</internalNodes>
          <leafValues>
            -6.9927686452865601e-01 6.3338327407836914e-01</leafValues></_>
        <_>
          <internalNodes>
            0 -1 67 1929503226 295895041 21103001 -889061376 16892411
            1233158418 1074366108 1389974073</internalNodes>
          <leafValues>
            -8.0301594734191895e-01 5.3999495506286621e-01</leafValues></_></weakClassifiers></_>
    <!-- stage 12 -->
    <_>
      <maxWeakCount>4</maxWeakCount>
      <stageThreshold>-1.4408341646194458e+00</stageThreshold>
      <weakClassifiers>
        <_>
          <internalNodes>
            0 -1 29 -720379323 -241987199 35 -794001405 17793128
            -1325268343 33849483 -133117752</internalNodes>
          <leafValues>
            -8.5520362854003906e-01 7.6320582628250122e-01</leafValues></_>
        <_>
          <internalNodes>
            0 -1 15 -267344063 -787476335 1358954933 -183432912
            -1073731359 -527957856 1476448985 -620030995</internalNodes>
          <leafValues>
            -6.9369637966156006e-01 7.5629544258117676e-01</leafValues></_>
        <_>
          <internalNodes>
            0 -1 78 -259661052 1090846800 133 290947073 143237472
            715178112 -2147450738 -1442070309</internalNodes>
          <leafValues>
            -8.3016318082809448e-01 5.7032287120819092e-01</leafValues></_>
        <_>
          <internalNodes>
            0 -1 1 -751583019 1358987264 268435542 906199298 570523778
            -2147483648 663809 151093766</internalNodes>
          <leafValues>
            -6.8018049001693726e-01 7.2078990936279297e-01</leafValues></_></weakClassifiers></_>
    <!-- stage 13 -->
    <_>
      <maxWeakCount>5</maxWeakCount>
      <stageThreshold>-1.0569458007812500e+00</stageThreshold>
      <weakClassifiers>
        <_>
          <internalNodes>
            0 -1 27 1930557935 -837566461 -1862205437 -1060072957
            -1879015285 -2139029502 536936847 -23297346</internalNodes>
          <leafValues>
            -8.4222739934921265e-01 7.4211001396179199e-01</leafValues></_>
        <_>
          <internalNodes>
            0 -1 59 -649756199 1431142427 -1073675427 -184303168
            1208647851 -768999287 -2097139064 -1735356288</internalNodes>
          <leafValues>
            -8.4699171781539917e-01 5.8344483375549316e-01</leafValues></_>
        <_>
          <internalNodes>
            0 -1 4 -1014500473 1728135427 1224802433 -2059333079
            134757015 16875520 51085705 1806394280</internalNodes>
          <leafValues>
            -7.6165592670440674e-01 5.9110671281814575e-01</leafValues></_>
        <_>
          <internalNodes>
            0 -1 70 1782817373 1074413572 590080 298942530 134316257
            142606464 32899 -1144010741</internalNodes>
          <leafValues>
            -7.1666640043258667e-01 6.6356843709945679e-01</leafValues></_>
        <_>
          <internalNodes>
            0 -1 54 1359020059 939589697 201329821 -620150775
            -2136833605 -1342177126 -2130542423 -201293689</internalNodes>
          <leafValues>
            -6.5421974658966064e-01 6.8015903234481812e-01</leafValues></_></weakClassifiers></_>
    <!-- stage 14 -->
    <_>
      <maxWeakCount>4</maxWeakCount>
      <stageThreshold>-1.5238854885101318e+00</stageThreshold>
      <weakClassifiers>
        <_>
          <internalNodes>
            0 -1 43 -771808725 -789499749 -191 -5292609 335511551
            -235274111 -15921 -1883436593</internalNodes>
          <leafValues>
            -6.8163263797760010e-01 7.5619047880172729e-01</leafValues></_>
        <_>
          <internalNodes>
            0 -1 18 -787364389 -1719566196 956404041 1192969346 244207
            805339656 -1207959373 213920640</internalNodes>
          <leafValues>
            -7.7025532722473145e-01 5.7372242212295532e-01</leafValues></_>
        <_>
          <internalNodes>
            0 -1 33 288469972 -905608943 285233412 -496623616
            -1073041266 -1148450813 -1735309176 -30412662</internalNodes>
          <leafValues>
            -8.4679496288299561e-01 4.6944755315780640e-01</leafValues></_>
        <_>
          <internalNodes>
            0 -1 24 -1022570023 -1860861948 16842773 -620736311
            -2122212992 -1602224128 -2125920118 -2109558718</internalNodes>
          <leafValues>
            -6.6302561759948730e-01 6.4676707983016968e-01</leafValues></_></weakClassifiers></_>
    <!-- stage 15 -->
    <_>
      <maxWeakCount>4</maxWeakCount>
      <stageThreshold>-1.4573800563812256e+00</stageThreshold>
      <weakClassifiers>
        <_>
          <internalNodes>
            0 -1 48 -1592744565 -1869504382 -2122251006 -1386020719
            -2147381085 -1331478528 -536755733 -18026808</internalNodes>
          <leafValues>
            -8.2439023256301880e-01 7.0619469881057739e-01</leafValues></_>
        <_>
          <internalNodes>
            0 -1 74 -171186387 285278469 264195 1359315354 8929315
            1368556698 738625679 -1114930677</internalNodes>
          <leafValues>
            -7.3266208171844482e-01 6.4364755153656006e-01</leafValues></_>
        <_>
          <internalNodes>
            0 -1 10 1414969309 -804224125 131669 -578448891 -536575278
            -1207369704 -1878753140 1623728641</internalNodes>
          <leafValues>
            -7.3233944177627563e-01 6.0826760530471802e-01</leafValues></_>
        <_>
          <internalNodes>
            0 -1 72 -867974966 -578486267 1140916288 407389343
            1074110627 -1004535808 -1073444725 1900855335</internalNodes>
          <leafValues>
            -6.9857323169708252e-01 6.4961820840835571e-01</leafValues></_></weakClassifiers></_>
    <!-- stage 16 -->
    <_>
      <maxWeakCount>5</maxWeakCount>
      <stageThreshold>-8.4835314750671387e-01</stageThreshold>
      <weakClassifiers>
        <_>
          <internalNodes>
            0 -1 40 -484480513 -268452865 -2 -805404674 -9 -1073741833
            -66526848 -37814313</internalNodes>
          <leafValues>
            -7.0416665077209473e-01 7.5283020734786987e-01</leafValues></_>
        <_>
          <internalNodes>
            0 -1 82 1414521388 268664832 -2147483647 1159397522 21398144
            -1593081854 -1828683640 -1290813302</internalNodes>
          <leafValues>
            -7.1027266979217529e-01 6.3779801130294800e-01</leafValues></_>
        <_>
          <internalNodes>
            0 -1 0 -821587025 1124171776 67400 -2130628597 303774025
            404955144 2059618192 126457986</internalNodes>
          <leafValues>
            -8.0486041307449341e-01 5.7076126337051392e-01</leafValues></_>
        <_>
          <internalNodes>
            0 -1 65 -754848306 -805109245 16842770 268632323 -2138995942
            536870913 -1333550918 -930185045</internalNodes>
          <leafValues>
            -6.1704689264297485e-01 7.0976006984710693e-01</leafValues></_>
        <_>
          <internalNodes>
            0 -1 3 -1031684090 1895892992 285212675 -620527613
            1077968968 33587200 1376985227 1078165571</internalNodes>
          <leafValues>
            -6.8688416481018066e-01 6.4883780479431152e-01</leafValues></_></weakClassifiers></_>
    <!-- stage 17 -->
    <_>
      <maxWeakCount>5</maxWeakCount>
      <stageThreshold>-8.0736297369003296e-01</stageThreshold>
      <weakClassifiers>
        <_>
          <internalNodes>
            0 -1 9 -1095106697 975896442 -196618 -1078263820 -1073479809
            217513847 -704774145 -917505</internalNodes>
          <leafValues>
            -6.4179104566574097e-01 7.1055090427398682e-01</leafValues></_>
        <_>
          <internalNodes>
            0 -1 20 -783183699 16842913 1342726352 -787443499 1346408903
            570425639 -536247837 1034061051</internalNodes>
          <leafValues>
            -7.5345176458358765e-01 5.9807199239730835e-01</leafValues></_>
        <_>
          <internalNodes>
            0 -1 60 1461926143 1866203135 -196609 -50462733 -587205132
            -16777225 1962278367 -34209801</internalNodes>
          <leafValues>
            -5.6466871500015259e-01 6.9681060314178467e-01</leafValues></_>
        <_>
          <internalNodes>
            0 -1 63 -1052032305 -1052688189 -2130640894 293666819
            1073766569 134217728 -1065336807 -367326838</internalNodes>
          <leafValues>
            -8.2472378015518188e-01 4.8797681927680969e-01</leafValues></_>
        <_>
          <internalNodes>
            0 -1 38 -1072615311 1494220864 -2147417335 -854802427
            -2147303288 -1979547472 98504 1263075331</internalNodes>
          <leafValues>
            -5.9690767526626587e-01 6.9563752412796021e-01</leafValues></_></weakClassifiers></_>
    <!-- stage 18 -->
    <_>
      <maxWeakCount>5</maxWeakCount>
      <stageThreshold>-9.4329345226287842e-01</stageThreshold>
      <weakClassifiers>
        <_>
          <internalNodes>
            0 -1 44 -1375209527 -285802497 -1 -268500994 -3 33751039
            -2113732480 -754458550</internalNodes>
          <leafValues>
            -6.6108787059783936e-01 7.3069679737091064e-01</leafValues></_>
        <_>
          <internalNodes>
            0 -1 62 1359069201 1093664824 1342259520 -584728272
            -2122274629 -243269622 -1006583556 -709598832</internalNodes>
          <leafValues>
            -7.4213296175003052e-01 5.7727122306823730e-01</leafValues></_>
        <_>
          <internalNodes>
            0 -1 12 -251528405 -339705324 1358954509 20988034 134848554
            150994947 1744947250 1099546794</internalNodes>
          <leafValues>
            -7.1213656663894653e-01 5.6888383626937866e-01</leafValues></_>
        <_>
          <internalNodes>
            0 -1 41 -117374725 -931135487 270668057 269484099 532635
            -1876819950 -2012679654 -1163907019</internalNodes>
          <leafValues>
            -7.3601073026657104e-01 5.6182593107223511e-01</leafValues></_>
        <_>
          <internalNodes>
            0 -1 56 -805294867 -1357528917 16812308 -1075247871
            168198298 -2004811646 164 -943355712</internalNodes>
          <leafValues>
            -6.7078238725662231e-01 5.9310096502304077e-01</leafValues></_></weakClassifiers></_>
    <!-- stage 19 -->
    <_>
      <maxWeakCount>5</maxWeakCount>
      <stageThreshold>-1.1036887168884277e+00</stageThreshold>
      <weakClassifiers>
        <_>
          <internalNodes>
            0 -1 68 -1073650613 1150306248 -1878916991 293748872
            1073813522 545259648 -771178358 2072765339</internalNodes>
          <leafValues>
            -8.1443297863006592e-01 6.7361110448837280e-01</leafValues></_>
        <_>
          <internalNodes>
            0 -1 13 1460654479 1766981634 16811024 -586636927
            -1300004398 571080832 33720965 -7751605</internalNodes>
          <leafValues>
            -6.4748966693878174e-01 6.7474222183227539e-01</leafValues></_>
        <_>
          <internalNodes>
            0 -1 31 -914140202 -788428585 318865425 -16609264 1216391213
            -1006622590 -1845065555 -1895821264</internalNodes>
          <leafValues>
            -7.2534519433975220e-01 6.0056656599044800e-01</leafValues></_>
        <_>
          <internalNodes>
            0 -1 83 1410043931 1376256524 163973 1191247873 -1962696151
            545292288 100731528 1665253386</internalNodes>
          <leafValues>
            -7.5427848100662231e-01 5.7099747657775879e-01</leafValues></_>
        <_>
          <internalNodes>
            0 -1 22 -804876009 -779066861 285234051 -975855608
            -1065232239 -1744240638 -2121561215 1317283844</internalNodes>
          <leafValues>
            -8.1274193525314331e-01 5.1194584369659424e-01</leafValues></_></weakClassifiers></_></stages>
  <features>
    <_>
      <rect>
        0 10 6 10</rect></_>
    <_>
      <rect>
        0 20 3 5</rect></_>
    <_>
      <rect>
        0 27 4 7</rect></_>
    <_>
      <rect>
        0 30 2 5</rect></_>
    <_>
      <rect>
        1 10 7 12</rect></_>
    <_>
      <rect>
        1 11 10 8</rect></_>
    <_>
      <rect>
        1 18 3 9</rect></_>
    <_>
      <rect>
        1 25 4 6</rect></_>
    <_>
      <rect>
        2 22 4 8</rect></_>
    <_>
      <rect>
        2 27 6 9</rect></_>
    <_>
      <rect>
        3 7 8 5</rect></_>
    <_>
      <rect>
        3 14 5 5</rect></_>
    <_>
      <rect>
        3 18 3 4</rect></_>
    <_>
      <rect>
        3 26 5 5</rect></_>
    <_>
      <rect>
        4 19 7 7</rect></_>
    <_>
      <rect>
        5 12 13 6</rect></_>
    <_>
      <rect>
        5 18 13 3</rect></_>
    <_>
      <rect>
        5 26 4 6</rect></_>
    <_>
      <rect>
        6 10 9 5</rect></_>
    <_>
      <rect>
        6 14 7 15</rect></_>
    <_>
      <rect>
        7 1 15 14</rect></_>
    <_>
      <rect>
        8 41 7 3</rect></_>
    <_>
      <rect>
        9 0 10 7</rect></_>
    <_>
      <rect>
        9 29 6 5</rect></_>
    <_>
      <rect>
        9 59 6 4</rect></_>
    <_>
      <rect>
        10 11 11 11</rect></_>
    <_>
      <rect>
        10 20 4 10</rect></_>
    <_>
      <rect>
        10 30 4 5</rect></_>
    <_>
      <rect>
        11 16 11 12</rect></_>
    <_>
      <rect>
        11 45 3 4</rect></_>
    <_>
      <rect>
        12 0 13 9</rect></_>
    <_>
      <rect>
        12 56 8 5</rect></_>
    <_>
      <rect>
        13 1 11 8</rect></_>
    <_>
      <rect>
        14 29 4 3</rect></_>
    <_>
      <rect>
        14 52 5 4</rect></_>
    <_>
      <rect>
        17 11 11 7</rect></_>
    <_>
      <rect>
        17 31 4 3</rect></_>
    <_>
      <rect>
        17 55 6 5</rect></_>
    <_>
      <rect>
        17 65 11 3</rect></_>
    <_>
      <rect>
        18 43 5 3</rect></_>
    <_>
      <rect>
        19 31 4 2</rect></_>
    <_>
      <rect>
        19 31 8 4</rect></_>
    <_>
      <rect>
        19 41 2 5</rect></_>
    <_>
      <rect>
        20 16 7 4</rect></_>
    <_>
      <rect>
        20 26 2 6</rect></_>
    <_>
      <rect>
        20 32 6 5</rect></_>
    <_>
      <rect>
        21 5 9 7</rect></_>
    <_>
      <rect>
        21 29 4 3</rect></_>
    <_>
      <rect>
        21 33 5 4</rect></_>
    <_>
      <rect>
        21 48 5 4</rect></_>
    <_>
      <rect>
        22 22 6 7</rect></_>
    <_>
      <rect>
        22 27 6 4</rect></_>
    <_>
      <rect>
        22 27 6 6</rect></_>
    <_>
      <rect>
        22 30 5 5</rect></_>
    <_>
      <rect>
        22 31 6 2</rect></_>
    <_>
      <rect>
        22 46 6 3</rect></_>
    <_>
      <rect>
        22 59 9 5</rect></_>
    <_>
      <rect>
        23 28 6 4</rect></_>
    <_>
      <rect>
        23 34 3 2</rect></_>
    <_>
      <rect>
        23 46 4 2</rect></_>
    <_>
      <rect>
        24 27 6 4</rect></_>
    <_>
      <rect>
        24 48 5 5</rect></_>
    <_>
      <rect>
        29 49 7 4</rect></_>
    <_>
      <rect>
        31 8 4 10</rect></_>
    <_>
      <rect>
        31 10 7 10</rect></_>
    <_>
      <rect>
        31 27 5 5</rect></_>
    <_>
      <rect>
        33 21 4 4</rect></_>
    <_>
      <rect>
        33 36 6 6</rect></_>
    <_>
      <rect>
        34 9 5 11</rect></_>
    <_>
      <rect>
        34 10 6 6</rect></_>
    <_>
      <rect>
        34 19 6 8</rect></_>
    <_>
      <rect>
        34 59 6 3</rect></_>
    <_>
      <rect>
        35 8 5 7</rect></_>
    <_>
      <rect>
        37 6 5 6</rect></_>
    <_>
      <rect>
        37 19 5 9</rect></_>
    <_>
      <rect>
        37 21 4 11</rect></_>
    <_>
      <rect>
        37 28 4 4</rect></_>
    <_>
      <rect>
        38 23 3 14</rect></_>
    <_>
      <rect>
        38 24 4 5</rect></_>
    <_>
      <rect>
        39 16 4 5</rect></_>
    <_>
      <rect>
        39 21 2 12</rect></_>
    <_>
      <rect>
        40 17 4 8</rect></_>
    <_>
      <rect>
        40 25 2 8</rect></_>
    <_>
      <rect>
        42 29 3 5</rect></_></features></cascade>
</opencv_storage>
