<?xml version="1.0"?>
<opencv_storage>
<cascade>
  <stageType>BOOST</stageType>
  <featureType>LBP</featureType>
  <height>100</height>
  <width>70</width>
  <stageParams>
    <boostType>GAB</boostType>
    <minHitRate>9.9900001287460327e-01</minHitRate>
    <maxFalseAlarm>5.0000000000000000e-01</maxFalseAlarm>
    <weightTrimRate>9.4999999999999996e-01</weightTrimRate>
    <maxDepth>1</maxDepth>
    <maxWeakCount>100</maxWeakCount></stageParams>
  <featureParams>
    <maxCatCount>256</maxCatCount>
    <featSize>1</featSize></featureParams>
  <stageNum>20</stageNum>
  <stages>
    <!-- stage 0 -->
    <_>
      <maxWeakCount>3</maxWeakCount>
      <stageThreshold>-1.1049196720123291e+00</stageThreshold>
      <weakClassifiers>
        <_>
          <internalNodes>
            0 -1 26 -2097153 -184029181 -796797985 -656026669 -897330705
            -310308725 -846206305 -186322975</internalNodes>
          <leafValues>
            -9.7459584474563599e-01 8.2472324371337891e-01</leafValues></_>
        <_>
          <internalNodes>
            0 -1 78 -70255617 -750665469 -1006628730 -251407285
            -482098038 -1046953728 -897261362 -733021234</internalNodes>
          <leafValues>
            -8.9576768875122070e-01 7.5732755661010742e-01</leafValues></_>
        <_>
          <internalNodes>
            0 -1 28 -674235393 -210767485 420843599 -648572202
            -255088389 -738164606 -937166353 -731518061</internalNodes>
          <leafValues>
            -7.9248797893524170e-01 7.6544386148452759e-01</leafValues></_></weakClassifiers></_>
    <!-- stage 1 -->
    <_>
      <maxWeakCount>2</maxWeakCount>
      <stageThreshold>-1.7162136733531952e-01</stageThreshold>
      <weakClassifiers>
        <_>
          <internalNodes>
            0 -1 49 -250480641 -539770151 -787476131 -559955699
            -1828130373 -1280802629 -1157498133 -16994596</internalNodes>
          <leafValues>
            -9.2000001668930054e-01 7.1911108493804932e-01</leafValues></_>
        <_>
          <internalNodes>
            0 -1 7 1428017663 -216941521 -1987733437 -6301559 1364199630
            1498747326 -1012061201 1006587823</internalNodes>
          <leafValues>
            -8.2614004611968994e-01 7.4837863445281982e-01</leafValues></_></weakClassifiers></_>
    <!-- stage 2 -->
    <_>
      <maxWeakCount>4</maxWeakCount>
      <stageThreshold>-6.1005097627639771e-01</stageThreshold>
      <weakClassifiers>
        <_>
          <internalNodes>
            0 -1 52 -81922053 -111734129 353452223 -699999893 -384333681
            -1282203127 -1952798295 -17000016</internalNodes>
          <leafValues>
            -8.8344371318817139e-01 6.0000002384185791e-01</leafValues></_>
        <_>
          <internalNodes>
            0 -1 24 -78124033 -542388005 1124094109 -2633221 195273727
            -1342164847 -1416914433 -198049819</internalNodes>
          <leafValues>
            -8.5626184940338135e-01 5.5820405483245850e-01</leafValues></_>
        <_>
          <internalNodes>
            0 -1 74 -181941298 -251404152 1073775808 -45833528
            -1559522677 -1054875447 -938245440 -973080069</internalNodes>
          <leafValues>
            -7.3672330379486084e-01 6.1914068460464478e-01</leafValues></_>
        <_>
          <internalNodes>
            0 -1 6 -485229729 -746466357 2 -777928061 -901706976
            -1610053501 -787789686 2071921230</internalNodes>
          <leafValues>
            -8.6404633522033691e-01 5.1051390171051025e-01</leafValues></_></weakClassifiers></_>
    <!-- stage 3 -->
    <_>
      <maxWeakCount>4</maxWeakCount>
      <stageThreshold>-1.8428201675415039e+00</stageThreshold>
      <weakClassifiers>
        <_>
          <internalNodes>
            0 -1 99 -673186817 -247267069 25334026 -435503070
            -1056838893 -2096983615 -536690174 -454100049</internalNodes>
          <leafValues>
            -7.9925650358200073e-01 6.0804897546768188e-01</leafValues></_>
        <_>
          <internalNodes>
            0 -1 60 -10503183 -182853549 -805257065 -66821247 -636896292
            -375422847 -1735882088 -61339108</internalNodes>
          <leafValues>
            -8.2582533359527588e-01 4.8784965276718140e-01</leafValues></_>
        <_>
          <internalNodes>
            0 -1 33 1497600923 -674132843 -251592546 -1097887726
            1627585279 -108277318 -389158673 550478507</internalNodes>
          <leafValues>
            -8.6679637432098389e-01 4.7432371973991394e-01</leafValues></_>
        <_>
          <internalNodes>
            0 -1 34 -788006913 -640474853 1073807775 -6332149
            -1853109589 -1450507648 -1467852133 -190264419</internalNodes>
          <leafValues>
            -7.5824749469757080e-01 5.5094116926193237e-01</leafValues></_></weakClassifiers></_>
    <!-- stage 4 -->
    <_>
      <maxWeakCount>5</maxWeakCount>
      <stageThreshold>-1.1938397884368896e+00</stageThreshold>
      <weakClassifiers>
        <_>
          <internalNodes>
            0 -1 44 -1659830275 -619636727 -1862180469 -11484911
            -1861962837 -1727938481 713796555 -1124333612</internalNodes>
          <leafValues>
            -8.2054990530014038e-01 4.9007147550582886e-01</leafValues></_>
        <_>
          <internalNodes>
            0 -1 111 -247213845 1359183874 4 353861634 1645814155 640
            285278208 1431765192</internalNodes>
          <leafValues>
            -7.0914340019226074e-01 5.0124847888946533e-01</leafValues></_>
        <_>
          <internalNodes>
            0 -1 48 -63397800 1366556760 -805302125 1963294855 415492796
            1770003467 -1610200082 2064582667</internalNodes>
          <leafValues>
            -7.2958183288574219e-01 5.1875567436218262e-01</leafValues></_>
        <_>
          <internalNodes>
            0 -1 87 -1860438130 -682959798 -2130476798 -720710928
            1124516643 159384594 -1567907325 -979408813</internalNodes>
          <leafValues>
            -6.2638825178146362e-01 6.1965024471282959e-01</leafValues></_>
        <_>
          <internalNodes>
            0 -1 29 -749489699 -28327543 -1878914547 -572538547
            -1987452285 -398409548 -1446147921 -498042063</internalNodes>
          <leafValues>
            -8.4469014406204224e-01 4.4348621368408203e-01</leafValues></_></weakClassifiers></_>
    <!-- stage 5 -->
    <_>
      <maxWeakCount>5</maxWeakCount>
      <stageThreshold>-1.1624846458435059e+00</stageThreshold>
      <weakClassifiers>
        <_>
          <internalNodes>
            0 -1 89 -217065074 -970800384 -1861152510 -1432141364
            -1853107201 -217874285 -531896671 -855639889</internalNodes>
          <leafValues>
            -7.6880222558975220e-01 4.8863637447357178e-01</leafValues></_>
        <_>
          <internalNodes>
            0 -1 70 -1283201602 -754400884 -1056632444 -49463144
            -532429107 -2130521982 -2113296214 -1914720082</internalNodes>
          <leafValues>
            -6.1550104618072510e-01 5.9204375743865967e-01</leafValues></_>
        <_>
          <internalNodes>
            0 -1 65 -614739876 1364312212 268488914 1880474195
            -934872504 1409384448 -394206550 1002434831</internalNodes>
          <leafValues>
            -7.4053668975830078e-01 5.1062077283859253e-01</leafValues></_>
        <_>
          <internalNodes>
            0 -1 12 -2129997082 -1023373310 285278481 496321348
            -2147098438 21004418 285458579 254005747</internalNodes>
          <leafValues>
            -6.9913899898529053e-01 5.3588795661926270e-01</leafValues></_>
        <_>
          <internalNodes>
            0 -1 95 -780012419 -241823331 -805302068 -122519214
            -1790800418 -1022851533 -1974861650 -189232754</internalNodes>
          <leafValues>
            -7.9720795154571533e-01 4.7615578770637512e-01</leafValues></_></weakClassifiers></_>
    <!-- stage 6 -->
    <_>
      <maxWeakCount>5</maxWeakCount>
      <stageThreshold>-1.0860213041305542e+00</stageThreshold>
      <weakClassifiers>
        <_>
          <internalNodes>
            0 -1 4 -787491926 -802958901 0 -247205310 81922 -1610579814
            -762902414 -547928062</internalNodes>
          <leafValues>
            -7.5366568565368652e-01 4.4479495286941528e-01</leafValues></_>
        <_>
          <internalNodes>
            0 -1 56 -44042785 -712047713 269746445 -184929986 -788416049
            -113598453 -964443795 -320541764</internalNodes>
          <leafValues>
            -8.7394392490386963e-01 3.5599017143249512e-01</leafValues></_>
        <_>
          <internalNodes>
            0 -1 59 -1325167718 -1790865258 285212808 534085646
            -536686405 -2130345984 -1605269368 -1933606229</internalNodes>
          <leafValues>
            -6.3423705101013184e-01 5.5147689580917358e-01</leafValues></_>
        <_>
          <internalNodes>
            0 -1 93 -138150054 -752791552 50483215 1912963079
            -2130533984 524322 -1055726961 1628688687</internalNodes>
          <leafValues>
            -5.8160227537155151e-01 6.3729745149612427e-01</leafValues></_>
        <_>
          <internalNodes>
            0 -1 21 -1006049025 -235141228 376875 -1622114288 -897135669
            -1332707184 -1878294129 -544095611</internalNodes>
          <leafValues>
            -6.3980519771575928e-01 5.5896699428558350e-01</leafValues></_></weakClassifiers></_>
    <!-- stage 7 -->
    <_>
      <maxWeakCount>6</maxWeakCount>
      <stageThreshold>-8.3785355091094971e-01</stageThreshold>
      <weakClassifiers>
        <_>
          <internalNodes>
            0 -1 55 -217588745 735302023 286327821 -1369583171
            -1593732981 -117264177 -654187877 -288579155</internalNodes>
          <leafValues>
            -7.8494626283645630e-01 4.3187066912651062e-01</leafValues></_>
        <_>
          <internalNodes>
            0 -1 113 -220206481 1430471875 1347 1073872901 -133632000
            805404928 -1341613938 1885498891</internalNodes>
          <leafValues>
            -6.7563873529434204e-01 4.4774332642555237e-01</leafValues></_>
        <_>
          <internalNodes>
            0 -1 15 1380315985 2043146596 0 -242376382 147114710
            -175453781 1484835755 529005487</internalNodes>
          <leafValues>
            -7.3686635494232178e-01 4.3334388732910156e-01</leafValues></_>
        <_>
          <internalNodes>
            0 -1 96 -1855462005 -750534526 268501250 -703213550
            822182794 270893059 268511232 1103071476</internalNodes>
          <leafValues>
            -6.8136030435562134e-01 5.1865512132644653e-01</leafValues></_>
        <_>
          <internalNodes>
            0 -1 98 -192161841 -662466557 553713679 -1016491693
            -508829436 -1138606078 -1152679901 -996351316</internalNodes>
          <leafValues>
            -8.4346461296081543e-01 3.7584885954856873e-01</leafValues></_>
        <_>
          <internalNodes>
            0 -1 3 -2138189617 -1052639156 -1073741696 2032156804
            151552227 1359544320 1073807749 1206375255</internalNodes>
          <leafValues>
            -6.0918503999710083e-01 5.8487766981124878e-01</leafValues></_></weakClassifiers></_>
    <!-- stage 8 -->
    <_>
      <maxWeakCount>6</maxWeakCount>
      <stageThreshold>-1.7473040819168091e+00</stageThreshold>
      <weakClassifiers>
        <_>
          <internalNodes>
            0 -1 97 -116010546 -330972914 1358970882 -427637696
            -1677547041 -113008635 -1882120062 -420496385</internalNodes>
          <leafValues>
            -7.3116689920425415e-01 4.2812255024909973e-01</leafValues></_>
        <_>
          <internalNodes>
            0 -1 64 -2130589860 -148074418 -1862270814 -540589946
            -805207297 -1949138806 -2147227480 -908342581</internalNodes>
          <leafValues>
            -6.1430609226226807e-01 5.0451254844665527e-01</leafValues></_>
        <_>
          <internalNodes>
            0 -1 45 -144714273 -219819778 1107361857 -20172701
            -1056866101 -240230007 -1023172469 -1434158347</internalNodes>
          <leafValues>
            -7.7503073215484619e-01 3.9697951078414917e-01</leafValues></_>
        <_>
          <internalNodes>
            0 -1 63 -1625280271 -141459301 285226919 -167456488
            -2130181719 -1707079520 -947223560 -24106856</internalNodes>
          <leafValues>
            -7.4073493480682373e-01 4.4365334510803223e-01</leafValues></_>
        <_>
          <internalNodes>
            0 -1 16 -800919094 -1055883071 -2144857726 -583810917
            -1878867493 -2130444278 -1207745749 -9999494</internalNodes>
          <leafValues>
            -5.9779947996139526e-01 5.5399870872497559e-01</leafValues></_>
        <_>
          <internalNodes>
            0 -1 23 -966477060 -16514557 86065493 -1626009536 72362988
            -1023401854 50635211 192350927</internalNodes>
          <leafValues>
            -6.1956566572189331e-01 5.1520645618438721e-01</leafValues></_></weakClassifiers></_>
    <!-- stage 9 -->
    <_>
      <maxWeakCount>6</maxWeakCount>
      <stageThreshold>-1.1050759553909302e+00</stageThreshold>
      <weakClassifiers>
        <_>
          <internalNodes>
            0 -1 11 -1526345473 1373385512 -2147413944 -673529712
            -2130402929 1212301440 8536591 -571228155</internalNodes>
          <leafValues>
            -5.5480223894119263e-01 5.0798124074935913e-01</leafValues></_>
        <_>
          <internalNodes>
            0 -1 108 -14159922 2004352637 -25821185 1414922087
            1064501204 1962726775 -65538 1899224671</internalNodes>
          <leafValues>
            -4.7670021653175354e-01 6.0930901765823364e-01</leafValues></_>
        <_>
          <internalNodes>
            0 -1 84 -199506488 1942007938 -2063564488 -49852340
            2030285451 1392583177 -1065114903 -973082553</internalNodes>
          <leafValues>
            -5.5626726150512695e-01 5.7667040824890137e-01</leafValues></_>
        <_>
          <internalNodes>
            0 -1 19 -804990002 -83787633 285216966 -137113586 -259483288
            -777977846 -1043691510 -8942517</internalNodes>
          <leafValues>
            -5.3188872337341309e-01 5.7931011915206909e-01</leafValues></_>
        <_>
          <internalNodes>
            0 -1 13 -84934994 -7997702 -17633303 -537399566 2012629198
            -276889683 399922922 -716759926</internalNodes>
          <leafValues>
            -4.9489909410476685e-01 6.4308565855026245e-01</leafValues></_>
        <_>
          <internalNodes>
            0 -1 40 -255810980 1367412740 1342194433 453087235
            -481746006 -1321009151 -503274877 892380747</internalNodes>
          <leafValues>
            -6.3931113481521606e-01 5.2222383022308350e-01</leafValues></_></weakClassifiers></_>
    <!-- stage 10 -->
    <_>
      <maxWeakCount>6</maxWeakCount>
      <stageThreshold>-1.0244857072830200e+00</stageThreshold>
      <weakClassifiers>
        <_>
          <internalNodes>
            0 -1 50 -754715649 -2012843627 287527187 -2031746661
            -1585258307 -74735158 -618034291 -857169924</internalNodes>
          <leafValues>
            -9.1886407136917114e-01 3.4522992372512817e-01</leafValues></_>
        <_>
          <internalNodes>
            0 -1 92 -167510787 -208469627 155791 -459390650 -803044609
            2040668179 -360666390 -50528808</internalNodes>
          <leafValues>
            -7.6655310392379761e-01 3.4670588374137878e-01</leafValues></_>
        <_>
          <internalNodes>
            0 -1 17 1430905798 -645541758 268436744 -170819446
            1544028172 -1333721472 -1459009266 2140104715</internalNodes>
          <leafValues>
            -7.7302753925323486e-01 3.8048237562179565e-01</leafValues></_>
        <_>
          <internalNodes>
            0 -1 10 -2067086862 1094869088 1073840129 -581107308
            -2130206248 570491008 65664 17547355</internalNodes>
          <leafValues>
            -6.7334175109863281e-01 4.3846166133880615e-01</leafValues></_>
        <_>
          <internalNodes>
            0 -1 106 -237503010 1364525320 16777238 20971539 -125785752
            1677787140 -1878998354 1913283371</internalNodes>
          <leafValues>
            -5.8274936676025391e-01 5.3775113821029663e-01</leafValues></_>
        <_>
          <internalNodes>
            0 -1 90 -754859058 -205402048 134222088 -150420414
            -2143182709 687931785 -787905968 -1549583281</internalNodes>
          <leafValues>
            -6.8852221965789795e-01 4.3032965064048767e-01</leafValues></_></weakClassifiers></_>
    <!-- stage 11 -->
    <_>
      <maxWeakCount>7</maxWeakCount>
      <stageThreshold>-1.2326284646987915e+00</stageThreshold>
      <weakClassifiers>
        <_>
          <internalNodes>
            0 -1 30 -1438606372 -33812208 -1862266871 -581959592
            58898858 -125796342 562079899 -1146549355</internalNodes>
          <leafValues>
            -6.1124694347381592e-01 4.8586571216583252e-01</leafValues></_>
        <_>
          <internalNodes>
            0 -1 82 -719594033 -170852350 -1795073790 -322318078
            -1644126017 -7634614 -1962688277 -387430193</internalNodes>
          <leafValues>
            -7.7335035800933838e-01 3.8657125830650330e-01</leafValues></_>
        <_>
          <internalNodes>
            0 -1 68 1095883558 -752439224 1230045184 -410263410
            402751619 -1585266383 1798545864 -1914051200</internalNodes>
          <leafValues>
            -6.6552686691284180e-01 4.5993173122406006e-01</leafValues></_>
        <_>
          <internalNodes>
            0 -1 69 -166404900 1373868050 1343225912 294732045 810804056
            1476395008 -1037518166 910915867</internalNodes>
          <leafValues>
            -5.7499533891677856e-01 5.2021574974060059e-01</leafValues></_>
        <_>
          <internalNodes>
            0 -1 62 -1828601431 -184135346 1291846025 525570394
            -771190261 -1476132824 -1161580661 -2049453686</internalNodes>
          <leafValues>
            -5.2051436901092529e-01 5.6296002864837646e-01</leafValues></_>
        <_>
          <internalNodes>
            0 -1 36 -174982843 1364058251 -1056964598 -175652561
            -645850633 -641566588 -1465746952 -30248122</internalNodes>
          <leafValues>
            -6.1639052629470825e-01 4.9492239952087402e-01</leafValues></_>
        <_>
          <internalNodes>
            0 -1 38 -744754197 -754900855 16859139 -746389479
            -1065189245 -1073672190 -1064640249 -28253424</internalNodes>
          <leafValues>
            -8.5309702157974243e-01 3.7731975317001343e-01</leafValues></_></weakClassifiers></_>
    <!-- stage 12 -->
    <_>
      <maxWeakCount>7</maxWeakCount>
      <stageThreshold>-1.0457485914230347e+00</stageThreshold>
      <weakClassifiers>
        <_>
          <internalNodes>
            0 -1 94 -107913745 -266369789 293683227 -570404025
            -1313299557 -1719070685 -779187542 -16980836</internalNodes>
          <leafValues>
            -6.7048710584640503e-01 4.1373801231384277e-01</leafValues></_>
        <_>
          <internalNodes>
            0 -1 53 -778456865 -241248074 280 -705789816 37848523
            -1555001328 -1878931254 78506378</internalNodes>
          <leafValues>
            -6.9207984209060669e-01 4.0245983004570007e-01</leafValues></_>
        <_>
          <internalNodes>
            0 -1 109 -351805346 1255120938 268435904 1879245138
            -267587000 17350658 -1065181046 1910763611</internalNodes>
          <leafValues>
            -5.4900616407394409e-01 5.2139234542846680e-01</leafValues></_>
        <_>
          <internalNodes>
            0 -1 2 -38799585 1204744170 -1114184 -1140850716 -444793601
            124911447 1440052658 -940059145</internalNodes>
          <leafValues>
            -4.5736145973205566e-01 6.0554516315460205e-01</leafValues></_>
        <_>
          <internalNodes>
            0 -1 112 1359454575 -222232560 4106 -788389758 1074667707
            537460994 16843008 1441751210</internalNodes>
          <leafValues>
            -6.0574936866760254e-01 4.9548503756523132e-01</leafValues></_>
        <_>
          <internalNodes>
            0 -1 67 -799665677 -543834085 1091672414 1994275011
            -1878466151 -1144684414 1929620159 -51359056</internalNodes>
          <leafValues>
            -6.5141874551773071e-01 4.5431399345397949e-01</leafValues></_>
        <_>
          <internalNodes>
            0 -1 88 1099962626 -1018380272 285294720 2132641457
            671096859 134840330 294301728 -845705075</internalNodes>
          <leafValues>
            -6.3717609643936157e-01 5.2465867996215820e-01</leafValues></_></weakClassifiers></_>
    <!-- stage 13 -->
    <_>
      <maxWeakCount>6</maxWeakCount>
      <stageThreshold>-8.4958362579345703e-01</stageThreshold>
      <weakClassifiers>
        <_>
          <internalNodes>
            0 -1 25 1075630872 -738987811 536936593 -1685344175
            1075357833 1925834915 -1014918454 792568751</internalNodes>
          <leafValues>
            -7.2964167594909668e-01 3.7275448441505432e-01</leafValues></_>
        <_>
          <internalNodes>
            0 -1 107 -741343538 -786759415 -2130640690 1090748674
            -481786752 65538 1736800 -1037904914</internalNodes>
          <leafValues>
            -7.7985942363739014e-01 3.1812605261802673e-01</leafValues></_>
        <_>
          <internalNodes>
            0 -1 9 -840245793 -546640386 804910643 1576795890 635958527
            393609207 402028515 521658075</internalNodes>
          <leafValues>
            -4.6667000651359558e-01 6.3012748956680298e-01</leafValues></_>
        <_>
          <internalNodes>
            0 -1 83 9689550 -214466112 16847104 -150827000 1082172296
            -1727004644 -1341602876 -438312771</internalNodes>
          <leafValues>
            -6.7260080575942993e-01 4.3980768322944641e-01</leafValues></_>
        <_>
          <internalNodes>
            0 -1 102 -1067859892 -124682155 283164804 284231060
            -2130661816 1679032845 -1070933810 -1325168613</internalNodes>
          <leafValues>
            -6.8256431818008423e-01 4.3656629323959351e-01</leafValues></_>
        <_>
          <internalNodes>
            0 -1 58 -783562613 1359527937 0 -1073643006 82050 -989560768
            -2147319808 -1231918108</internalNodes>
          <leafValues>
            -8.1542658805847168e-01 3.9203193783760071e-01</leafValues></_></weakClassifiers></_>
    <!-- stage 14 -->
    <_>
      <maxWeakCount>6</maxWeakCount>
      <stageThreshold>-8.1777709722518921e-01</stageThreshold>
      <weakClassifiers>
        <_>
          <internalNodes>
            0 -1 37 -1315974145 -585371581 269025473 -93899 -1508670821
            -754958323 -209458539 -17511628</internalNodes>
          <leafValues>
            -6.6993004083633423e-01 4.2834007740020752e-01</leafValues></_>
        <_>
          <internalNodes>
            0 -1 100 -745867574 -2088081470 50401376 -1433415409
            -1069306917 998314378 -1050949247 -1498418501</internalNodes>
          <leafValues>
            -6.3283914327621460e-01 4.1614693403244019e-01</leafValues></_>
        <_>
          <internalNodes>
            0 -1 46 306404351 -268090999 1342259527 -1617959421
            -863797349 -914257791 1095256571 786589541</internalNodes>
          <leafValues>
            -7.5160884857177734e-01 3.6100021004676819e-01</leafValues></_>
        <_>
          <internalNodes>
            0 -1 73 1534521689 1900651777 1610743811 487688219
            -1341489000 268576770 539005690 1981946655</internalNodes>
          <leafValues>
            -6.2044441699981689e-01 4.5967456698417664e-01</leafValues></_>
        <_>
          <internalNodes>
            0 -1 72 1124287448 356569460 1359020864 -788516790
            -536870495 -1560018517 687907465 -2118682135</internalNodes>
          <leafValues>
            -6.8957990407943726e-01 4.1899254918098450e-01</leafValues></_>
        <_>
          <internalNodes>
            0 -1 27 524679 -641138673 -2146959223 -644906741 -2121629489
            -1852735485 151692427 -199892915</internalNodes>
          <leafValues>
            -6.8074989318847656e-01 4.2896756529808044e-01</leafValues></_></weakClassifiers></_>
    <!-- stage 15 -->
    <_>
      <maxWeakCount>7</maxWeakCount>
      <stageThreshold>-9.6760928630828857e-01</stageThreshold>
      <weakClassifiers>
        <_>
          <internalNodes>
            0 -1 54 -1378194059 -1689132656 -510941447 -171744785
            -99995009 -645731967 -410805285 2124473088</internalNodes>
          <leafValues>
            -6.0609912872314453e-01 4.5313844084739685e-01</leafValues></_>
        <_>
          <internalNodes>
            0 -1 57 -788426273 -687664879 16912669 -363296764 421693675
            -1148649333 -1440640859 -51379024</internalNodes>
          <leafValues>
            -8.9094269275665283e-01 2.9061138629913330e-01</leafValues></_>
        <_>
          <internalNodes>
            0 -1 104 -528546 -287965355 -16908673 1702231796 -13174954
            1971222007 1988001790 1618201727</internalNodes>
          <leafValues>
            -4.7497275471687317e-01 6.1173647642135620e-01</leafValues></_>
        <_>
          <internalNodes>
            0 -1 115 532147867 435916725 -16863553 -75518213 79564176
            548175734 74782207 503051771</internalNodes>
          <leafValues>
            -4.8698070645332336e-01 5.9784084558486938e-01</leafValues></_>
        <_>
          <internalNodes>
            0 -1 8 -251362742 -792264367 2262080 1359155328 1367359752
            8454792 -1207388849 -242234737</internalNodes>
          <leafValues>
            -6.2050706148147583e-01 4.5302939414978027e-01</leafValues></_>
        <_>
          <internalNodes>
            0 -1 85 -1291351631 -753344188 -1861625447 -619481220
            -775749493 1090519170 270508098 96448789</internalNodes>
          <leafValues>
            -5.8450651168823242e-01 5.0919252634048462e-01</leafValues></_>
        <_>
          <internalNodes>
            0 -1 91 -607038645 1478558785 1075344846 2086801449
            -258923928 -2130509823 940177560 -192624082</internalNodes>
          <leafValues>
            -6.1792850494384766e-01 5.0013804435729980e-01</leafValues></_></weakClassifiers></_>
    <!-- stage 16 -->
    <_>
      <maxWeakCount>8</maxWeakCount>
      <stageThreshold>-6.7626786231994629e-01</stageThreshold>
      <weakClassifiers>
        <_>
          <internalNodes>
            0 -1 22 25301275 -576782323 134283265 1549729999 1109920387
            -1140817791 -1979545077 -1130363261</internalNodes>
          <leafValues>
            -6.3193506002426147e-01 4.2691990733146667e-01</leafValues></_>
        <_>
          <internalNodes>
            0 -1 5 -1065256158 1343607442 -1056964596 -1857732054
            537256034 -2147401728 1075122184 -753407478</internalNodes>
          <leafValues>
            -5.8273148536682129e-01 4.6418777108192444e-01</leafValues></_>
        <_>
          <internalNodes>
            0 -1 43 807732476 -1665818159 1216400792 -1684696613
            276908767 -74857443 -687127079 782264868</internalNodes>
          <leafValues>
            -7.0257776975631714e-01 3.7185734510421753e-01</leafValues></_>
        <_>
          <internalNodes>
            0 -1 103 -935017268 -288325051 134463502 22032394
            -1610495751 98304 294944974 946481227</internalNodes>
          <leafValues>
            -5.0880914926528931e-01 5.6832355260848999e-01</leafValues></_>
        <_>
          <internalNodes>
            0 -1 81 -250490155 -237662177 -1861910528 -260516513
            -2120101428 413631106 -1040136466 -321078852</internalNodes>
          <leafValues>
            -7.9943597316741943e-01 3.3489218354225159e-01</leafValues></_>
        <_>
          <internalNodes>
            0 -1 114 -95174449 1497891205 1635876938 1111752963 16955808
            34819 -1878884102 1886906511</internalNodes>
          <leafValues>
            -5.1844233274459839e-01 5.9846180677413940e-01</leafValues></_>
        <_>
          <internalNodes>
            0 -1 77 1905459520 -787115756 285279697 -774524908
            1073758393 1090560128 1207980050 -2124416784</internalNodes>
          <leafValues>
            -5.4183667898178101e-01 5.3780019283294678e-01</leafValues></_>
        <_>
          <internalNodes>
            0 -1 76 -1694285537 -2063539944 -720301495 -1785474799
            -788328317 -2134720114 1644236993 -1916288831</internalNodes>
          <leafValues>
            -6.5034562349319458e-01 4.6823564171791077e-01</leafValues></_></weakClassifiers></_>
    <!-- stage 17 -->
    <_>
      <maxWeakCount>8</maxWeakCount>
      <stageThreshold>-8.5870110988616943e-01</stageThreshold>
      <weakClassifiers>
        <_>
          <internalNodes>
            0 -1 39 289538192 425300693 16810249 227383323 1073775804
            1502134312 -1207918113 797952655</internalNodes>
          <leafValues>
            -7.9120880365371704e-01 3.4330484271049500e-01</leafValues></_>
        <_>
          <internalNodes>
            0 -1 1 -448626465 1098940442 83968157 290541576 18186474
            1778425859 1074807011 31965195</internalNodes>
          <leafValues>
            -5.2327203750610352e-01 4.8882645368576050e-01</leafValues></_>
        <_>
          <internalNodes>
            0 -1 71 -1878859058 1342449667 16846848 196867 269583178
            163842 1074143378 1154458250</internalNodes>
          <leafValues>
            -5.8195155858993530e-01 4.4241365790367126e-01</leafValues></_>
        <_>
          <internalNodes>
            0 -1 110 -1068571681 1237438678 553785348 1347026959
            1459737096 1627422888 335681754 1619929199</internalNodes>
          <leafValues>
            -6.2351453304290771e-01 4.5614305138587952e-01</leafValues></_>
        <_>
          <internalNodes>
            0 -1 47 -718095280 1540363312 269554143 188813572 -922211399
            -1417019264 -1275062101 992877336</internalNodes>
          <leafValues>
            -5.4508703947067261e-01 4.7693964838981628e-01</leafValues></_>
        <_>
          <internalNodes>
            0 -1 31 -267126712 -787775089 16859520 -1639874393
            -2138488460 -1601625972 -1920334710 -411927697</internalNodes>
          <leafValues>
            -6.4517599344253540e-01 4.2541238665580750e-01</leafValues></_>
        <_>
          <internalNodes>
            0 -1 35 -263749113 1091141633 65536 -854908541 -2113167358
            -1843363775 16941195 -51320507</internalNodes>
          <leafValues>
            -8.1352382898330688e-01 3.4580704569816589e-01</leafValues></_>
        <_>
          <internalNodes>
            0 -1 41 -569074952 1360658498 301990149 -16711679 -511210247
            729808899 -1740111677 -83152283</internalNodes>
          <leafValues>
            -5.7653301954269409e-01 5.1999980211257935e-01</leafValues></_></weakClassifiers></_>
    <!-- stage 18 -->
    <_>
      <maxWeakCount>7</maxWeakCount>
      <stageThreshold>-1.4660214185714722e+00</stageThreshold>
      <weakClassifiers>
        <_>
          <internalNodes>
            0 -1 86 -784223286 -1407020414 285229442 -2011100766
            -2129185893 -448589019 -1576427353 -855657221</internalNodes>
          <leafValues>
            -7.0193737745285034e-01 4.0734949707984924e-01</leafValues></_>
        <_>
          <internalNodes>
            0 -1 51 -1454283689 -1222654459 1476580633 -18884325
            -1051965336 -641627743 -403695845 782383680</internalNodes>
          <leafValues>
            -6.8084490299224854e-01 3.7306356430053711e-01</leafValues></_>
        <_>
          <internalNodes>
            0 -1 66 -1149083655 -1857220600 17056139 -195426044
            -1878789893 -1262387061 -2122316102 -118224744</internalNodes>
          <leafValues>
            -7.3408114910125732e-01 3.7249374389648438e-01</leafValues></_>
        <_>
          <internalNodes>
            0 -1 105 -1826584558 1929986305 67180688 1497825282
            1745355275 76054537 268468512 33530475</internalNodes>
          <leafValues>
            -6.5423995256423950e-01 4.5858162641525269e-01</leafValues></_>
        <_>
          <internalNodes>
            0 -1 14 -2139045701 -1688661862 135331843 -846658803
            -2147385037 -2004352824 -2113861525 -1608416404</internalNodes>
          <leafValues>
            -6.4455413818359375e-01 4.6286579966545105e-01</leafValues></_>
        <_>
          <internalNodes>
            0 -1 32 -1610173872 1157645186 -989785959 1437942416
            1074110603 1233948801 17006850 531302665</internalNodes>
          <leafValues>
            -6.6574114561080933e-01 4.2702543735504150e-01</leafValues></_>
        <_>
          <internalNodes>
            0 -1 80 -100036006 1975861382 268697865 1353515024 419603368
            288194610 -2113623382 808171059</internalNodes>
          <leafValues>
            -6.6299283504486084e-01 3.9951542019844055e-01</leafValues></_></weakClassifiers></_>
    <!-- stage 19 -->
    <_>
      <maxWeakCount>8</maxWeakCount>
      <stageThreshold>-1.6535692214965820e+00</stageThreshold>
      <weakClassifiers>
        <_>
          <internalNodes>
            0 -1 61 1392615827 2013495317 1073742093 -602537718
            -1073575783 -1283391315 -2055042909 -55013088</internalNodes>
          <leafValues>
            -8.5199999809265137e-01 3.2827585935592651e-01</leafValues></_>
        <_>
          <internalNodes>
            0 -1 75 16835582 -246414912 1090589600 -8333260 1078305281
            -1878982366 34423691 -2058529580</internalNodes>
          <leafValues>
            -7.0462852716445923e-01 3.3389860391616821e-01</leafValues></_>
        <_>
          <internalNodes>
            0 -1 18 -4981074 -4331554 -16412 -6167312 -8389902 -655361
            1584700906 -412662389</internalNodes>
          <leafValues>
            -3.7290528416633606e-01 7.5292670726776123e-01</leafValues></_>
        <_>
          <internalNodes>
            0 -1 42 -1060523605 1883312131 0 -804995061 -1023356671
            -1073692654 8503321 -1430043059</internalNodes>
          <leafValues>
            -5.8597862720489502e-01 5.0349605083465576e-01</leafValues></_>
        <_>
          <internalNodes>
            0 -1 101 -721170222 -2130538216 1073827928 -1392234108
            1073840395 1246363651 -1047724013 -1914702891</internalNodes>
          <leafValues>
            -6.2888544797897339e-01 4.2501774430274963e-01</leafValues></_>
        <_>
          <internalNodes>
            0 -1 20 -1622002988 -1088945781 83890432 1493262336 110774
            1107886209 386467995 -1148319029</internalNodes>
          <leafValues>
            -5.3513205051422119e-01 5.4986548423767090e-01</leafValues></_>
        <_>
          <internalNodes>
            0 -1 79 -666316196 1045430337 1075904529 1096108310
            276857560 106730 536912111 2047479947</internalNodes>
          <leafValues>
            -5.4248362779617310e-01 5.2487653493881226e-01</leafValues></_>
        <_>
          <internalNodes>
            0 -1 0 22599518 37884162 65793 1897332736 -1565360126
            152241323 1614907649 1158120167</internalNodes>
          <leafValues>
            -7.0426189899444580e-01 3.8059291243553162e-01</leafValues></_></weakClassifiers></_></stages>
  <features>
    <_>
      <rect>
        0 11 8 8</rect></_>
    <_>
      <rect>
        0 18 5 7</rect></_>
    <_>
      <rect>
        0 21 6 5</rect></_>
    <_>
      <rect>
        0 26 5 6</rect></_>
    <_>
      <rect>
        0 32 9 17</rect></_>
    <_>
      <rect>
        0 35 8 17</rect></_>
    <_>
      <rect>
        0 36 15 21</rect></_>
    <_>
      <rect>
        0 52 20 15</rect></_>
    <_>
      <rect>
        0 64 12 11</rect></_>
    <_>
      <rect>
        1 9 10 5</rect></_>
    <_>
      <rect>
        1 11 6 8</rect></_>
    <_>
      <rect>
        1 22 9 6</rect></_>
    <_>
      <rect>
        2 8 9 7</rect></_>
    <_>
      <rect>
        2 39 5 8</rect></_>
    <_>
      <rect>
        2 46 13 6</rect></_>
    <_>
      <rect>
        2 46 22 18</rect></_>
    <_>
      <rect>
        2 49 7 8</rect></_>
    <_>
      <rect>
        3 53 14 13</rect></_>
    <_>
      <rect>
        4 25 5 16</rect></_>
    <_>
      <rect>
        4 54 6 6</rect></_>
    <_>
      <rect>
        5 4 13 7</rect></_>
    <_>
      <rect>
        6 12 11 7</rect></_>
    <_>
      <rect>
        6 44 18 8</rect></_>
    <_>
      <rect>
        7 1 13 9</rect></_>
    <_>
      <rect>
        7 42 14 8</rect></_>
    <_>
      <rect>
        7 46 21 18</rect></_>
    <_>
      <rect>
        8 32 16 12</rect></_>
    <_>
      <rect>
        8 40 12 8</rect></_>
    <_>
      <rect>
        9 46 13 6</rect></_>
    <_>
      <rect>
        10 47 12 8</rect></_>
    <_>
      <rect>
        11 9 10 6</rect></_>
    <_>
      <rect>
        11 55 4 5</rect></_>
    <_>
      <rect>
        12 6 6 5</rect></_>
    <_>
      <rect>
        12 48 19 13</rect></_>
    <_>
      <rect>
        19 35 8 4</rect></_>
    <_>
      <rect>
        19 39 7 11</rect></_>
    <_>
      <rect>
        19 55 4 5</rect></_>
    <_>
      <rect>
        20 27 2 2</rect></_>
    <_>
      <rect>
        20 35 2 3</rect></_>
    <_>
      <rect>
        20 63 14 9</rect></_>
    <_>
      <rect>
        22 0 15 9</rect></_>
    <_>
      <rect>
        22 5 11 7</rect></_>
    <_>
      <rect>
        22 45 5 17</rect></_>
    <_>
      <rect>
        22 60 5 4</rect></_>
    <_>
      <rect>
        23 23 4 3</rect></_>
    <_>
      <rect>
        23 47 7 9</rect></_>
    <_>
      <rect>
        24 60 6 6</rect></_>
    <_>
      <rect>
        25 1 11 5</rect></_>
    <_>
      <rect>
        26 3 12 9</rect></_>
    <_>
      <rect>
        26 33 9 5</rect></_>
    <_>
      <rect>
        26 46 7 3</rect></_>
    <_>
      <rect>
        27 64 4 3</rect></_>
    <_>
      <rect>
        28 30 7 3</rect></_>
    <_>
      <rect>
        28 52 11 9</rect></_>
    <_>
      <rect>
        28 68 2 2</rect></_>
    <_>
      <rect>
        29 42 6 4</rect></_>
    <_>
      <rect>
        30 35 3 2</rect></_>
    <_>
      <rect>
        30 41 7 2</rect></_>
    <_>
      <rect>
        30 43 1 15</rect></_>
    <_>
      <rect>
        31 56 12 7</rect></_>
    <_>
      <rect>
        32 21 8 4</rect></_>
    <_>
      <rect>
        32 35 6 2</rect></_>
    <_>
      <rect>
        33 59 9 7</rect></_>
    <_>
      <rect>
        34 20 4 2</rect></_>
    <_>
      <rect>
        36 53 10 5</rect></_>
    <_>
      <rect>
        37 11 11 8</rect></_>
    <_>
      <rect>
        37 22 3 2</rect></_>
    <_>
      <rect>
        38 29 3 1</rect></_>
    <_>
      <rect>
        38 54 7 6</rect></_>
    <_>
      <rect>
        39 11 8 5</rect></_>
    <_>
      <rect>
        39 54 8 6</rect></_>
    <_>
      <rect>
        40 0 10 32</rect></_>
    <_>
      <rect>
        40 51 7 6</rect></_>
    <_>
      <rect>
        42 15 8 8</rect></_>
    <_>
      <rect>
        42 51 8 5</rect></_>
    <_>
      <rect>
        42 52 7 7</rect></_>
    <_>
      <rect>
        42 58 5 5</rect></_>
    <_>
      <rect>
        42 60 5 8</rect></_>
    <_>
      <rect>
        43 25 7 13</rect></_>
    <_>
      <rect>
        44 8 8 6</rect></_>
    <_>
      <rect>
        44 13 8 7</rect></_>
    <_>
      <rect>
        44 32 3 2</rect></_>
    <_>
      <rect>
        44 42 5 2</rect></_>
    <_>
      <rect>
        44 52 8 3</rect></_>
    <_>
      <rect>
        44 53 7 5</rect></_>
    <_>
      <rect>
        44 54 7 7</rect></_>
    <_>
      <rect>
        45 50 4 3</rect></_>
    <_>
      <rect>
        45 51 6 6</rect></_>
    <_>
      <rect>
        45 64 5 3</rect></_>
    <_>
      <rect>
        46 48 4 3</rect></_>
    <_>
      <rect>
        46 49 8 4</rect></_>
    <_>
      <rect>
        47 18 3 1</rect></_>
    <_>
      <rect>
        47 29 2 2</rect></_>
    <_>
      <rect>
        48 11 7 10</rect></_>
    <_>
      <rect>
        48 30 2 2</rect></_>
    <_>
      <rect>
        48 33 4 2</rect></_>
    <_>
      <rect>
        48 44 7 10</rect></_>
    <_>
      <rect>
        48 46 4 3</rect></_>
    <_>
      <rect>
        49 36 1 2</rect></_>
    <_>
      <rect>
        49 36 3 6</rect></_>
    <_>
      <rect>
        49 51 3 3</rect></_>
    <_>
      <rect>
        49 54 3 4</rect></_>
    <_>
      <rect>
        51 17 5 2</rect></_>
    <_>
      <rect>
        52 3 6 4</rect></_>
    <_>
      <rect>
        52 14 6 12</rect></_>
    <_>
      <rect>
        52 51 6 4</rect></_>
    <_>
      <rect>
        53 18 4 5</rect></_>
    <_>
      <rect>
        54 34 3 6</rect></_>
    <_>
      <rect>
        55 14 5 11</rect></_>
    <_>
      <rect>
        55 15 5 7</rect></_>
    <_>
      <rect>
        55 24 5 4</rect></_>
    <_>
      <rect>
        55 32 5 15</rect></_>
    <_>
      <rect>
        55 43 5 6</rect></_>
    <_>
      <rect>
        57 24 4 6</rect></_>
    <_>
      <rect>
        58 31 4 4</rect></_>
    <_>
      <rect>
        58 51 4 7</rect></_></features></cascade>
</opencv_storage>
