<?xml version="1.0"?>
<opencv_storage>
<cascade>
  <stageType>BOOST</stageType>
  <featureType>LBP</featureType>
  <height>90</height>
  <width>63</width>
  <stageParams>
    <boostType>GAB</boostType>
    <minHitRate>9.9900001287460327e-01</minHitRate>
    <maxFalseAlarm>5.0000000000000000e-01</maxFalseAlarm>
    <weightTrimRate>9.4999999999999996e-01</weightTrimRate>
    <maxDepth>1</maxDepth>
    <maxWeakCount>100</maxWeakCount></stageParams>
  <featureParams>
    <maxCatCount>256</maxCatCount>
    <featSize>1</featSize></featureParams>
  <stageNum>20</stageNum>
  <stages>
    <!-- stage 0 -->
    <_>
      <maxWeakCount>2</maxWeakCount>
      <stageThreshold>-2.5916254520416260e-01</stageThreshold>
      <weakClassifiers>
        <_>
          <internalNodes>
            0 -1 26 -3146753 -141835809 -1866378849 -589827901
            -255096065 -947748727 -511602213 -255531023</internalNodes>
          <leafValues>
            -9.8965871334075928e-01 8.6525267362594604e-01</leafValues></_>
        <_>
          <internalNodes>
            0 -1 56 -35914753 -648167217 -2130526077 -607272823
            -515714097 1610842249 -318056245 -19072020</internalNodes>
          <leafValues>
            -9.1290020942687988e-01 7.3049616813659668e-01</leafValues></_></weakClassifiers></_>
    <!-- stage 1 -->
    <_>
      <maxWeakCount>2</maxWeakCount>
      <stageThreshold>-1.8839348852634430e-01</stageThreshold>
      <weakClassifiers>
        <_>
          <internalNodes>
            0 -1 17 -2099201 -654191713 1087377929 -174616133 1641019823
            1354894223 -640685089 332365823</internalNodes>
          <leafValues>
            -8.7734913825988770e-01 8.4477227926254272e-01</leafValues></_>
        <_>
          <internalNodes>
            0 -1 77 -77596769 -788147549 -1056948222 -754724605
            -266092542 -930985726 -163130870 -286460961</internalNodes>
          <leafValues>
            -9.2188131809234619e-01 6.8895566463470459e-01</leafValues></_></weakClassifiers></_>
    <!-- stage 2 -->
    <_>
      <maxWeakCount>5</maxWeakCount>
      <stageThreshold>-1.0630236864089966e+00</stageThreshold>
      <weakClassifiers>
        <_>
          <internalNodes>
            0 -1 33 1493242879 -577043041 16842767 -48689 -2147254081
            -1684107127 -2108839025 -256066679</internalNodes>
          <leafValues>
            -8.0335193872451782e-01 6.8597012758255005e-01</leafValues></_>
        <_>
          <internalNodes>
            0 -1 16 -225250305 -2767961 -2147461117 -144711217
            -1727407653 -489791488 -754439765 2011131663</internalNodes>
          <leafValues>
            -8.3392834663391113e-01 5.9355634450912476e-01</leafValues></_>
        <_>
          <internalNodes>
            0 -1 71 -1120300582 -753547258 -939454208 -605104628
            -1597922321 -2147438024 -2078170940 -974146933</internalNodes>
          <leafValues>
            -7.1440118551254272e-01 6.3089698553085327e-01</leafValues></_>
        <_>
          <internalNodes>
            0 -1 41 -1852294189 -787414863 822087963 -602914543
            -2146910534 -1080721277 948611245 -1129053776</internalNodes>
          <leafValues>
            -7.7069854736328125e-01 6.2459778785705566e-01</leafValues></_>
        <_>
          <internalNodes>
            0 -1 29 1360343192 -648740479 268440845 487129097
            -1342144338 -1333248000 1124663743 193673995</internalNodes>
          <leafValues>
            -6.7670810222625732e-01 6.6406011581420898e-01</leafValues></_></weakClassifiers></_>
    <!-- stage 3 -->
    <_>
      <maxWeakCount>5</maxWeakCount>
      <stageThreshold>-1.2564594745635986e+00</stageThreshold>
      <weakClassifiers>
        <_>
          <internalNodes>
            0 -1 19 -178784257 -135014371 49223 -3804917 1241581590
            495534464 -1177855957 1935101443</internalNodes>
          <leafValues>
            -8.8795518875122070e-01 5.7327586412429810e-01</leafValues></_>
        <_>
          <internalNodes>
            0 -1 51 -671359009 -237272951 -2147415805 -247745577
            -179241301 -634716150 -1018440785 -16973828</internalNodes>
          <leafValues>
            -8.4584885835647583e-01 5.2372032403945923e-01</leafValues></_>
        <_>
          <internalNodes>
            0 -1 83 -211945732 -209587386 1376882688 -204553564
            -1055932021 -1021607903 -528251007 -202380801</internalNodes>
          <leafValues>
            -6.5491098165512085e-01 6.5036463737487793e-01</leafValues></_>
        <_>
          <internalNodes>
            0 -1 53 -115868677 -82767713 -2079981255 -327437156
            -1996316181 -41090933 -116796787 -320290863</internalNodes>
          <leafValues>
            -8.4788757562637329e-01 5.2932137250900269e-01</leafValues></_>
        <_>
          <internalNodes>
            0 -1 18 290962431 2032110055 49549 -2760549 839631022
            -76909438 -1069448753 1072691951</internalNodes>
          <leafValues>
            -7.4085712432861328e-01 5.1891213655471802e-01</leafValues></_></weakClassifiers></_>
    <!-- stage 4 -->
    <_>
      <maxWeakCount>5</maxWeakCount>
      <stageThreshold>-1.1110180616378784e+00</stageThreshold>
      <weakClassifiers>
        <_>
          <internalNodes>
            0 -1 81 -753938344 1394950415 -2130639854 831721499
            -1876905956 1409359873 1387811466 839600907</internalNodes>
          <leafValues>
            -6.8314605951309204e-01 6.1785715818405151e-01</leafValues></_>
        <_>
          <internalNodes>
            0 -1 69 -720002114 -146485110 1124140040 -15937400
            -787885653 -2023718392 -535748472 -907153278</internalNodes>
          <leafValues>
            -6.7112481594085693e-01 5.9123635292053223e-01</leafValues></_>
        <_>
          <internalNodes>
            0 -1 87 -8128513 -260517373 1090617918 -394870698 1132720331
            -134094719 -1868330037 -990059572</internalNodes>
          <leafValues>
            -9.3280035257339478e-01 4.0556555986404419e-01</leafValues></_>
        <_>
          <internalNodes>
            0 -1 79 1494475262 -720039916 285233184 -605912694
            -498696054 -1828642673 -217906496 -504652545</internalNodes>
          <leafValues>
            -6.7916941642761230e-01 5.6073540449142456e-01</leafValues></_>
        <_>
          <internalNodes>
            0 -1 91 1930687363 1090880257 16842753 -805089261 -804794086
            1350565888 -922746878 1089970782</internalNodes>
          <leafValues>
            -6.6899490356445312e-01 5.9286135435104370e-01</leafValues></_></weakClassifiers></_>
    <!-- stage 5 -->
    <_>
      <maxWeakCount>7</maxWeakCount>
      <stageThreshold>-1.1247590780258179e+00</stageThreshold>
      <weakClassifiers>
        <_>
          <internalNodes>
            0 -1 97 -575541074 -417148598 1343250432 -427683390
            1090707979 -1291155063 -1066720704 -424676357</internalNodes>
          <leafValues>
            -6.8927252292633057e-01 5.6225126981735229e-01</leafValues></_>
        <_>
          <internalNodes>
            0 -1 54 -1828605698 1968830612 407110920 -212533112
            -905792851 -1895758966 -2138996600 -1930430294</internalNodes>
          <leafValues>
            -6.3617217540740967e-01 5.7202506065368652e-01</leafValues></_>
        <_>
          <internalNodes>
            0 -1 4 -859119362 29368320 25247851 1560613133 33743609
            1090551936 21209259 199738463</internalNodes>
          <leafValues>
            -6.4043754339218140e-01 5.6353545188903809e-01</leafValues></_>
        <_>
          <internalNodes>
            0 -1 55 -786671651 -205446763 -2147348199 -16366748
            -2000125189 -1467776593 -1458926693 -54236484</internalNodes>
          <leafValues>
            -7.2047823667526245e-01 4.9759864807128906e-01</leafValues></_>
        <_>
          <internalNodes>
            0 -1 111 1997271535 -1052405567 285278208 -784134142
            1359151131 33619970 286134288 1434439910</internalNodes>
          <leafValues>
            -6.1913782358169556e-01 5.6311684846878052e-01</leafValues></_>
        <_>
          <internalNodes>
            0 -1 94 -41299986 -1434277398 -1056892670 -1910287897
            -211054417 -360607453 -915422777 -318775363</internalNodes>
          <leafValues>
            -7.2475087642669678e-01 4.7628432512283325e-01</leafValues></_>
        <_>
          <internalNodes>
            0 -1 42 -778309608 1964318753 285245767 285824275 285785001
            805502979 1359165947 556685863</internalNodes>
          <leafValues>
            -7.0526468753814697e-01 5.0048196315765381e-01</leafValues></_></weakClassifiers></_>
    <!-- stage 6 -->
    <_>
      <maxWeakCount>4</maxWeakCount>
      <stageThreshold>-6.3249886035919189e-01</stageThreshold>
      <weakClassifiers>
        <_>
          <internalNodes>
            0 -1 32 -778577937 -707357807 1342374154 -206380595
            -1014982497 -645169023 -239019977 -726172</internalNodes>
          <leafValues>
            -8.2900762557983398e-01 5.0809401273727417e-01</leafValues></_>
        <_>
          <internalNodes>
            0 -1 20 1501689565 -673889451 1694498887 -36896610
            1107329211 -74776072 -2012690248 1927242494</internalNodes>
          <leafValues>
            -7.4972033500671387e-01 4.6017515659332275e-01</leafValues></_>
        <_>
          <internalNodes>
            0 -1 74 -787250202 -113011572 1359282176 -649621364
            -787439229 562237687 1073943040 -1516280158</internalNodes>
          <leafValues>
            -6.1556524038314819e-01 5.7404947280883789e-01</leafValues></_>
        <_>
          <internalNodes>
            0 -1 96 -749479954 -742158272 285573504 -398030552
            -1056460579 -484310845 -1316249150 -420545569</internalNodes>
          <leafValues>
            -8.3771586418151855e-01 3.8711178302764893e-01</leafValues></_></weakClassifiers></_>
    <!-- stage 7 -->
    <_>
      <maxWeakCount>7</maxWeakCount>
      <stageThreshold>-1.1477183103561401e+00</stageThreshold>
      <weakClassifiers>
        <_>
          <internalNodes>
            0 -1 24 17804287 -15080177 67141967 -36845429 -1602053953
            -259945822 -902059605 -268406905</internalNodes>
          <leafValues>
            -7.0499998331069946e-01 5.6158190965652466e-01</leafValues></_>
        <_>
          <internalNodes>
            0 -1 108 -236981428 -520019968 327680 -1878941693
            -1006460928 33056 -805246818 1900536331</internalNodes>
          <leafValues>
            -5.8723592758178711e-01 5.4254609346389771e-01</leafValues></_>
        <_>
          <internalNodes>
            0 -1 64 -137446923 -216301553 -2096938997 -616304406
            -888694097 -2085912309 -888634689 -88282380</internalNodes>
          <leafValues>
            -7.5562530755996704e-01 4.5110440254211426e-01</leafValues></_>
        <_>
          <internalNodes>
            0 -1 9 -389100838 -460668790 16879747 1367973952 1125286569
            32832 1074364995 187146243</internalNodes>
          <leafValues>
            -5.9647011756896973e-01 5.3944134712219238e-01</leafValues></_>
        <_>
          <internalNodes>
            0 -1 22 -716467526 -1069170429 277348352 1082179597
            -888897393 268648512 -517275602 -77341934</internalNodes>
          <leafValues>
            -5.9226137399673462e-01 5.4275196790695190e-01</leafValues></_>
        <_>
          <internalNodes>
            0 -1 44 -749154113 -772074789 2179087 -522313803 -1794981477
            864944523 990554799 -257115204</internalNodes>
          <leafValues>
            -8.3143490552902222e-01 3.7600445747375488e-01</leafValues></_>
        <_>
          <internalNodes>
            0 -1 117 -245968385 -284884981 1610694722 -703917874
            -1852441866 196754 843121074 2013253879</internalNodes>
          <leafValues>
            -5.8360064029693604e-01 5.7766813039779663e-01</leafValues></_></weakClassifiers></_>
    <!-- stage 8 -->
    <_>
      <maxWeakCount>5</maxWeakCount>
      <stageThreshold>-9.6868377923965454e-01</stageThreshold>
      <weakClassifiers>
        <_>
          <internalNodes>
            0 -1 49 -212086305 -1966108491 1170587925 207081947
            195612555 -74742593 62984447 -1366521396</internalNodes>
          <leafValues>
            -7.7503854036331177e-01 4.8568454384803772e-01</leafValues></_>
        <_>
          <internalNodes>
            0 -1 72 631359460 -108869632 1359286400 -238301046
            -1543388277 -1952251717 8945888 -1054356809</internalNodes>
          <leafValues>
            -6.5772211551666260e-01 4.7115245461463928e-01</leafValues></_>
        <_>
          <internalNodes>
            0 -1 114 -218628385 -444633474 -17498126 812875389
            -185075900 1683423092 -151061314 1966866367</internalNodes>
          <leafValues>
            -4.4714087247848511e-01 7.0578521490097046e-01</leafValues></_>
        <_>
          <internalNodes>
            0 -1 86 -241968641 -150667263 -775872248 -165408566
            -1584887297 -267780048 -1458898710 -868157764</internalNodes>
          <leafValues>
            -7.1239638328552246e-01 4.5015138387680054e-01</leafValues></_>
        <_>
          <internalNodes>
            0 -1 2 -1874816109 -796663160 9 -1052675070 360602
            -2147287040 254091 2138272003</internalNodes>
          <leafValues>
            -6.5818649530410767e-01 4.3218094110488892e-01</leafValues></_></weakClassifiers></_>
    <!-- stage 9 -->
    <_>
      <maxWeakCount>7</maxWeakCount>
      <stageThreshold>-1.3021750450134277e+00</stageThreshold>
      <weakClassifiers>
        <_>
          <internalNodes>
            0 -1 48 357684559 -716058285 272732311 -237530982 1073791120
            1879130120 -1860859511 586121898</internalNodes>
          <leafValues>
            -7.2640216350555420e-01 5.2256661653518677e-01</leafValues></_>
        <_>
          <internalNodes>
            0 -1 90 -245900964 1359581449 268439563 1359282563
            -1819740968 67174400 -1837055350 1901287947</internalNodes>
          <leafValues>
            -6.2658125162124634e-01 4.7993034124374390e-01</leafValues></_>
        <_>
          <internalNodes>
            0 -1 110 1364980447 -490504053 536936458 -1320972662
            1363871851 125845763 290160772 1375715574</internalNodes>
          <leafValues>
            -5.5168259143829346e-01 5.3640449047088623e-01</leafValues></_>
        <_>
          <internalNodes>
            0 -1 37 -1793805831 -178450335 -1056767733 -539307456
            -1451006981 -1995636575 -1853765203 -52900944</internalNodes>
          <leafValues>
            -7.3018836975097656e-01 4.6225926280021667e-01</leafValues></_>
        <_>
          <internalNodes>
            0 -1 7 -489782301 1661338112 0 1501888580 1073973675 129
            46367123 118948563</internalNodes>
          <leafValues>
            -6.2437784671783447e-01 5.1065891981124878e-01</leafValues></_>
        <_>
          <internalNodes>
            0 -1 89 -2125345426 -112885430 -1035878336 -209040988
            406888687 1225492641 -1021479871 -1579306507</internalNodes>
          <leafValues>
            -6.8755352497100830e-01 4.4095119833946228e-01</leafValues></_>
        <_>
          <internalNodes>
            0 -1 104 -1727933746 -754548717 270078442 -737799904
            1093327579 328966159 -502677513 1470073067</internalNodes>
          <leafValues>
            -7.0306301116943359e-01 4.0306243300437927e-01</leafValues></_></weakClassifiers></_>
    <!-- stage 10 -->
    <_>
      <maxWeakCount>6</maxWeakCount>
      <stageThreshold>-1.5451146364212036e+00</stageThreshold>
      <weakClassifiers>
        <_>
          <internalNodes>
            0 -1 50 -242754665 -687611874 1073741825 -264055999
            -2147123193 -498941818 1076023691 -1498906764</internalNodes>
          <leafValues>
            -7.6333332061767578e-01 4.5076140761375427e-01</leafValues></_>
        <_>
          <internalNodes>
            0 -1 10 -888741921 -718897008 -1995238385 -1617686272
            -1467975505 -1055752062 55281883 1602738819</internalNodes>
          <leafValues>
            -5.2970659732818604e-01 5.3203886747360229e-01</leafValues></_>
        <_>
          <internalNodes>
            0 -1 102 -79998995 -111947767 -2113791154 -94736127
            -1041568834 -1073545120 -2088572690 -453186822</internalNodes>
          <leafValues>
            -6.5730345249176025e-01 4.3250495195388794e-01</leafValues></_>
        <_>
          <internalNodes>
            0 -1 106 824038382 -2130206709 1225503106 -78736950 17541723
            1108445447 1157891952 2010100155</internalNodes>
          <leafValues>
            -6.6363990306854248e-01 4.6158015727996826e-01</leafValues></_>
        <_>
          <internalNodes>
            0 -1 84 -766449576 1417630212 29364428 822091803 -653991768
            1078165512 -805191462 283708527</internalNodes>
          <leafValues>
            -5.7102274894714355e-01 5.1140117645263672e-01</leafValues></_>
        <_>
          <internalNodes>
            0 -1 35 -1932224801 -644512829 -801626643 -21347861
            1543714681 -1132289627 -343676305 2141219396</internalNodes>
          <leafValues>
            -6.6401189565658569e-01 4.2423358559608459e-01</leafValues></_></weakClassifiers></_>
    <!-- stage 11 -->
    <_>
      <maxWeakCount>7</maxWeakCount>
      <stageThreshold>-1.2046021223068237e+00</stageThreshold>
      <weakClassifiers>
        <_>
          <internalNodes>
            0 -1 66 -123471268 1903767063 2130344831 2037477215 -394024
            1362459765 -84363266 856387423</internalNodes>
          <leafValues>
            -4.7765639424324036e-01 5.8285349607467651e-01</leafValues></_>
        <_>
          <internalNodes>
            0 -1 68 -1756302897 -826207991 -1995372128 -299694847
            1652605627 -208068599 -922053697 -589874805</internalNodes>
          <leafValues>
            -7.4253267049789429e-01 3.8713675737380981e-01</leafValues></_>
        <_>
          <internalNodes>
            0 -1 8 -1025322530 285266048 16843081 -242446336 -1836810174
            -2071953408 -536838006 -989359797</internalNodes>
          <leafValues>
            -5.7267528772354126e-01 5.0244671106338501e-01</leafValues></_>
        <_>
          <internalNodes>
            0 -1 25 72351996 2111131861 1073845249 -1077440112
            1619038379 2059567763 1342349515 1003464843</internalNodes>
          <leafValues>
            -7.5803315639495850e-01 4.2239585518836975e-01</leafValues></_>
        <_>
          <internalNodes>
            0 -1 76 -515682618 -1456730034 890784064 -10776112
            1367344019 -1450504183 286466534 -843074647</internalNodes>
          <leafValues>
            -6.0449022054672241e-01 4.6277493238449097e-01</leafValues></_>
        <_>
          <internalNodes>
            0 -1 103 -750530052 570654722 16809986 -532471703 1216925735
            318980096 270057707 -291308809</internalNodes>
          <leafValues>
            -7.0418530702590942e-01 4.0218523144721985e-01</leafValues></_>
        <_>
          <internalNodes>
            0 -1 31 -250833192 1459659264 -1065349031 365244697
            -1288660248 19922950 1627525291 457771067</internalNodes>
          <leafValues>
            -5.9378677606582642e-01 5.2548807859420776e-01</leafValues></_></weakClassifiers></_>
    <!-- stage 12 -->
    <_>
      <maxWeakCount>7</maxWeakCount>
      <stageThreshold>-1.0880012512207031e+00</stageThreshold>
      <weakClassifiers>
        <_>
          <internalNodes>
            0 -1 39 357391845 -610406571 -1324904295 -3033933 -153917579
            -19193592 -1159722295 2054181732</internalNodes>
          <leafValues>
            -6.2663185596466064e-01 5.0443458557128906e-01</leafValues></_>
        <_>
          <internalNodes>
            0 -1 118 -1425804353 131458 16842754 532491 285931658
            -2105540608 16973960 1482358989</internalNodes>
          <leafValues>
            -5.8755081892013550e-01 4.5882984995841980e-01</leafValues></_>
        <_>
          <internalNodes>
            0 -1 92 -246162945 1394016259 -1862205439 -805076031
            -213352445 -1862197245 188938 -420552721</internalNodes>
          <leafValues>
            -7.0961678028106689e-01 3.9692217111587524e-01</leafValues></_>
        <_>
          <internalNodes>
            0 -1 1 -437473030 -1028111 738160121 528188541 1203809786
            291561463 124229051 1327432223</internalNodes>
          <leafValues>
            -4.9940422177314758e-01 5.6523567438125610e-01</leafValues></_>
        <_>
          <internalNodes>
            0 -1 27 -645278727 -171735847 1342181525 -674905207
            -1979446399 -641924959 -392262755 1918920469</internalNodes>
          <leafValues>
            -7.6433813571929932e-01 3.6086577177047729e-01</leafValues></_>
        <_>
          <internalNodes>
            0 -1 43 -1474774529 -170815216 285853071 -1277931071
            -1591108949 -1029107693 52619435 -88558940</internalNodes>
          <leafValues>
            -5.9668856859207153e-01 4.5500719547271729e-01</leafValues></_>
        <_>
          <internalNodes>
            0 -1 109 -4530 -545390723 -1 -243269777 -402653194
            -982188428 -184617218 1158932303</internalNodes>
          <leafValues>
            -4.6648722887039185e-01 6.5031701326370239e-01</leafValues></_></weakClassifiers></_>
    <!-- stage 13 -->
    <_>
      <maxWeakCount>7</maxWeakCount>
      <stageThreshold>-1.0840343236923218e+00</stageThreshold>
      <weakClassifiers>
        <_>
          <internalNodes>
            0 -1 30 -217061137 -279015365 -1589575604 -78651250
            -795168685 -1046772734 -1056446443 -146476188</internalNodes>
          <leafValues>
            -6.9534558057785034e-01 4.9596992135047913e-01</leafValues></_>
        <_>
          <internalNodes>
            0 -1 98 -611855378 -149880813 285274368 -6582192 512987055
            1266753545 92455045 29089915</internalNodes>
          <leafValues>
            -5.1520031690597534e-01 5.3079879283905029e-01</leafValues></_>
        <_>
          <internalNodes>
            0 -1 82 -618409857 -180250351 -1609985286 -59111076
            -1140135044 -1355677655 -1568096100 -334456812</internalNodes>
          <leafValues>
            -6.0218006372451782e-01 4.4959318637847900e-01</leafValues></_>
        <_>
          <internalNodes>
            0 -1 12 -525680174 1623367816 524297 1088786434 1074972674
            16826507 103041 40077711</internalNodes>
          <leafValues>
            -5.1051443815231323e-01 5.3395050764083862e-01</leafValues></_>
        <_>
          <internalNodes>
            0 -1 107 1628434595 -2146803583 1073807873 1342259331 852354
            5 537206924 14616795</internalNodes>
          <leafValues>
            -6.2339162826538086e-01 4.6373304724693298e-01</leafValues></_>
        <_>
          <internalNodes>
            0 -1 70 -804138693 -149481466 1342252412 -247443008 109325
            -2130706133 -502035547 -1579211880</internalNodes>
          <leafValues>
            -6.2537664175033569e-01 4.7994753718376160e-01</leafValues></_>
        <_>
          <internalNodes>
            0 -1 28 1107493151 -1063812601 16777217 -997621749
            -1962293109 -1962868725 167905323 -60761219</internalNodes>
          <leafValues>
            -8.4223908185958862e-01 3.6593034863471985e-01</leafValues></_></weakClassifiers></_>
    <!-- stage 14 -->
    <_>
      <maxWeakCount>6</maxWeakCount>
      <stageThreshold>-7.6748150587081909e-01</stageThreshold>
      <weakClassifiers>
        <_>
          <internalNodes>
            0 -1 99 -116272690 -733818478 25248138 -838553310
            -2104983396 -787767033 -1442144118 -458427394</internalNodes>
          <leafValues>
            -7.4708819389343262e-01 4.4641950726509094e-01</leafValues></_>
        <_>
          <internalNodes>
            0 -1 23 -1417489960 -176013240 16778625 521764884
            -2084470645 1115717792 16879779 224364687</internalNodes>
          <leafValues>
            -5.6254535913467407e-01 4.7454467415809631e-01</leafValues></_>
        <_>
          <internalNodes>
            0 -1 15 1082184666 554091018 128 1342177794 12616226
            1610743920 33554586 -781776350</internalNodes>
          <leafValues>
            -6.0191321372985840e-01 4.6226367354393005e-01</leafValues></_>
        <_>
          <internalNodes>
            0 -1 47 -246409796 -684392191 -1317009219 -1793838828
            -1861839937 -1090416086 -2141973832 -131577728</internalNodes>
          <leafValues>
            -6.5378469228744507e-01 4.0246689319610596e-01</leafValues></_>
        <_>
          <internalNodes>
            0 -1 101 -1810697652 1897283727 268441818 1343226112
            -1574243764 553882625 -1565873476 1932187183</internalNodes>
          <leafValues>
            -7.1306419372558594e-01 3.7264814972877502e-01</leafValues></_>
        <_>
          <internalNodes>
            0 -1 75 25387181 1431650384 1412498760 1599542336 1090699266
            -889192448 555819168 1157320831</internalNodes>
          <leafValues>
            -6.4660441875457764e-01 4.2824092507362366e-01</leafValues></_></weakClassifiers></_>
    <!-- stage 15 -->
    <_>
      <maxWeakCount>8</maxWeakCount>
      <stageThreshold>-9.0207493305206299e-01</stageThreshold>
      <weakClassifiers>
        <_>
          <internalNodes>
            0 -1 52 1359074239 -250404394 -2097086461 -630848765
            1107925643 -1281646573 -1742503021 -16978948</internalNodes>
          <leafValues>
            -7.9606437683105469e-01 4.3510690331459045e-01</leafValues></_>
        <_>
          <internalNodes>
            0 -1 0 -2125727698 1073807424 655361 -711856064 4292751
            -2144829312 67272846 -547127533</internalNodes>
          <leafValues>
            -5.8355057239532471e-01 4.7963052988052368e-01</leafValues></_>
        <_>
          <internalNodes>
            0 -1 100 -216272805 1393885227 2163092 1917001737 1661526300
            1074266112 -492804438 1880295947</internalNodes>
          <leafValues>
            -5.2785158157348633e-01 5.2651751041412354e-01</leafValues></_>
        <_>
          <internalNodes>
            0 -1 61 -783969988 -169569966 1426129177 -1257565814
            -989753336 21729299 -2113825813 -1920082551</internalNodes>
          <leafValues>
            -5.2037310600280762e-01 5.1617908477783203e-01</leafValues></_>
        <_>
          <internalNodes>
            0 -1 46 303922109 -680030073 -1861707709 -212225649
            -930088567 -338394367 -108543044 1035762549</internalNodes>
          <leafValues>
            -5.9249931573867798e-01 4.4745314121246338e-01</leafValues></_>
        <_>
          <internalNodes>
            0 -1 6 -921711988 1179308168 440483844 -1580349056 50497926
            1107304449 51413121 88047619</internalNodes>
          <leafValues>
            -6.2700039148330688e-01 4.1548958420753479e-01</leafValues></_>
        <_>
          <internalNodes>
            0 -1 67 -788453281 1899122832 -1744678444 -1629878246
            -1876320104 -629047151 -91711236 -1933530976</internalNodes>
          <leafValues>
            -7.1070605516433716e-01 3.8958400487899780e-01</leafValues></_>
        <_>
          <internalNodes>
            0 -1 45 -800591666 -771276798 49152 -1069252478 -535854974
            -1073511423 -2143223801 -1429708187</internalNodes>
          <leafValues>
            -8.2525974512100220e-01 3.1628474593162537e-01</leafValues></_></weakClassifiers></_>
    <!-- stage 16 -->
    <_>
      <maxWeakCount>7</maxWeakCount>
      <stageThreshold>-1.2437883615493774e+00</stageThreshold>
      <weakClassifiers>
        <_>
          <internalNodes>
            0 -1 21 1087373426 -2548741 0 -1683914470 1778388618
            2063090675 1351094410 2076916107</internalNodes>
          <leafValues>
            -8.0037665367126465e-01 4.1932320594787598e-01</leafValues></_>
        <_>
          <internalNodes>
            0 -1 88 -450110674 -1602219776 -1052680062 -2004485216
            -268311665 -875978613 -2147247709 -1929380929</internalNodes>
          <leafValues>
            -6.6986286640167236e-01 3.6740148067474365e-01</leafValues></_>
        <_>
          <internalNodes>
            0 -1 60 -732303268 1427177476 -2143268679 823726344
            -402598658 188776490 1881295547 807624720</internalNodes>
          <leafValues>
            -5.8224076032638550e-01 4.6395480632781982e-01</leafValues></_>
        <_>
          <internalNodes>
            0 -1 34 2039726495 -652017511 -2130404963 2098675993
            201375915 2107535 -880441185 270457836</internalNodes>
          <leafValues>
            -6.0419499874114990e-01 4.1878306865692139e-01</leafValues></_>
        <_>
          <internalNodes>
            0 -1 5 -2105347658 -103497662 297926931 1902076344
            1082231245 603992320 151464079 -2096114769</internalNodes>
          <leafValues>
            -5.3380388021469116e-01 4.9927690625190735e-01</leafValues></_>
        <_>
          <internalNodes>
            0 -1 62 1669333792 928383252 1224802560 -1785380340
            -1946093871 25723264 -519446368 81785067</internalNodes>
          <leafValues>
            -7.1694612503051758e-01 3.9545702934265137e-01</leafValues></_>
        <_>
          <internalNodes>
            0 -1 112 -1723084386 -1055534841 -922679894 -612236786
            1082364447 536870924 -754806368 -169368853</internalNodes>
          <leafValues>
            -5.5129021406173706e-01 5.0503826141357422e-01</leafValues></_></weakClassifiers></_>
    <!-- stage 17 -->
    <_>
      <maxWeakCount>7</maxWeakCount>
      <stageThreshold>-9.3501800298690796e-01</stageThreshold>
      <weakClassifiers>
        <_>
          <internalNodes>
            0 -1 73 -584721957 -233369325 1140920403 -31588082
            -1862098437 -378335197 -503139921 -325801244</internalNodes>
          <leafValues>
            -8.3999997377395630e-01 4.2591688036918640e-01</leafValues></_>
        <_>
          <internalNodes>
            0 -1 14 1307440367 -1062450580 -289411559 2062862912
            1702796987 1148485958 15581591 300405855</internalNodes>
          <leafValues>
            -4.5061463117599487e-01 5.7662057876586914e-01</leafValues></_>
        <_>
          <internalNodes>
            0 -1 113 -227611697 1983086319 -1157695746 1612835573
            1946015324 880148348 -1090595142 1895821311</internalNodes>
          <leafValues>
            -4.5546045899391174e-01 5.4851806163787842e-01</leafValues></_>
        <_>
          <internalNodes>
            0 -1 80 -2129428150 -710388414 1074003978 -956149278
            2030145931 -502656445 -1239284543 -1916852799</internalNodes>
          <leafValues>
            -6.6911721229553223e-01 4.1495585441589355e-01</leafValues></_>
        <_>
          <internalNodes>
            0 -1 59 -261041924 -37224121 290455997 831377752 -804609864
            -494370680 -402638360 -1205333490</internalNodes>
          <leafValues>
            -4.9309700727462769e-01 5.5042845010757446e-01</leafValues></_>
        <_>
          <internalNodes>
            0 -1 93 1891750591 1392705730 10 1627455490 -2096938666
            553844738 -1069481598 -324340749</internalNodes>
          <leafValues>
            -7.5442731380462646e-01 3.5699856281280518e-01</leafValues></_>
        <_>
          <internalNodes>
            0 -1 119 1026488227 -1645527414 788512695 1488957375
            217984227 108896049 83207551 1374635263</internalNodes>
          <leafValues>
            -4.7177883982658386e-01 5.8627873659133911e-01</leafValues></_></weakClassifiers></_>
    <!-- stage 18 -->
    <_>
      <maxWeakCount>8</maxWeakCount>
      <stageThreshold>-8.9065647125244141e-01</stageThreshold>
      <weakClassifiers>
        <_>
          <internalNodes>
            0 -1 57 -233572909 -2037636138 152060183 -2044309006
            -1861188982 -40986581 -2013068577 -930381572</internalNodes>
          <leafValues>
            -7.5661373138427734e-01 4.2885670065879822e-01</leafValues></_>
        <_>
          <internalNodes>
            0 -1 38 369205503 -705579564 -1879042027 -44298226
            -1879003111 -980382390 1929412810 80587210</internalNodes>
          <leafValues>
            -6.4216625690460205e-01 3.6168828606605530e-01</leafValues></_>
        <_>
          <internalNodes>
            0 -1 120 486124862 536756221 -65539 -1241653251 83828092
            1342070781 481797245 164087031</internalNodes>
          <leafValues>
            -3.8845488429069519e-01 6.5094220638275146e-01</leafValues></_>
        <_>
          <internalNodes>
            0 -1 105 -792504709 -166542831 -1878654561 -762048446
            -1331133684 -2147352576 -1467446645 -1065351000</internalNodes>
          <leafValues>
            -5.9032064676284790e-01 3.9790692925453186e-01</leafValues></_>
        <_>
          <internalNodes>
            0 -1 3 -997539374 -444530664 385876099 -654229447 30094234
            16941193 37789697 117900291</internalNodes>
          <leafValues>
            -5.7579267024993896e-01 4.0873757004737854e-01</leafValues></_>
        <_>
          <internalNodes>
            0 -1 65 -719326753 553867557 -1073672163 735084615
            -1748983673 -1055553277 -1996382161 -1359420679</internalNodes>
          <leafValues>
            -7.0040321350097656e-01 3.1503692269325256e-01</leafValues></_>
        <_>
          <internalNodes>
            0 -1 13 238939326 -1439502596 -65537 254967992 2138881883
            610588664 1844576231 1694758395</internalNodes>
          <leafValues>
            -4.2050373554229736e-01 6.0348153114318848e-01</leafValues></_>
        <_>
          <internalNodes>
            0 -1 40 307309036 -1786130221 50516040 -1156336810
            1074407311 -624363520 -628684615 777661745</internalNodes>
          <leafValues>
            -8.1699895858764648e-01 3.2443624734878540e-01</leafValues></_></weakClassifiers></_>
    <!-- stage 19 -->
    <_>
      <maxWeakCount>9</maxWeakCount>
      <stageThreshold>-1.0966454744338989e+00</stageThreshold>
      <weakClassifiers>
        <_>
          <internalNodes>
            0 -1 63 -204996420 1364263431 -687631703 486539267
            -1157625090 -2097012736 -803732502 -1709698216</internalNodes>
          <leafValues>
            -6.3636362552642822e-01 4.7708895802497864e-01</leafValues></_>
        <_>
          <internalNodes>
            0 -1 115 -587203234 -402698241 -65537 1916657663 -143329290
            1207302069 -184879362 1968396159</internalNodes>
          <leafValues>
            -4.2027667164802551e-01 6.1804395914077759e-01</leafValues></_>
        <_>
          <internalNodes>
            0 -1 58 -788278122 -50294780 285315336 1459835648 293683457
            -1425313792 -1996248664 -1914578036</internalNodes>
          <leafValues>
            -5.2711957693099976e-01 4.6901676058769226e-01</leafValues></_>
        <_>
          <internalNodes>
            0 -1 78 -178802030 -1098227318 1073807634 -2079408128
            33620355 -2121793021 425993 -2001997381</internalNodes>
          <leafValues>
            -6.6817325353622437e-01 4.2733275890350342e-01</leafValues></_>
        <_>
          <internalNodes>
            0 -1 36 -82333668 502349832 268617005 822165639 -779951842
            1761845376 807967400 1024266303</internalNodes>
          <leafValues>
            -6.4096760749816895e-01 3.6598175764083862e-01</leafValues></_>
        <_>
          <internalNodes>
            0 -1 11 -1543259922 -783908544 287425552 1595148784
            -2013036413 -1780449276 -2004123410 -1849441117</internalNodes>
          <leafValues>
            -5.4875808954238892e-01 4.6047312021255493e-01</leafValues></_>
        <_>
          <internalNodes>
            0 -1 85 -787000867 -648478683 -2147417741 -334462576
            -863850104 1393721352 -1610569332 -1732191244</internalNodes>
          <leafValues>
            -7.9012244939804077e-01 3.3725249767303467e-01</leafValues></_>
        <_>
          <internalNodes>
            0 -1 95 -256196099 2062036863 -428057 1652195199 1295948973
            -1900151425 -587397649 1762028835</internalNodes>
          <leafValues>
            -4.6833723783493042e-01 5.7549941539764404e-01</leafValues></_>
        <_>
          <internalNodes>
            0 -1 116 1124100523 -889151467 16777473 1291845651
            -1592915814 134226056 16957828 1232330894</internalNodes>
          <leafValues>
            -5.1738488674163818e-01 5.0259953737258911e-01</leafValues></_></weakClassifiers></_></stages>
  <features>
    <_>
      <rect>
        0 0 11 28</rect></_>
    <_>
      <rect>
        0 1 12 7</rect></_>
    <_>
      <rect>
        0 2 10 27</rect></_>
    <_>
      <rect>
        0 5 7 6</rect></_>
    <_>
      <rect>
        0 5 9 8</rect></_>
    <_>
      <rect>
        0 11 7 8</rect></_>
    <_>
      <rect>
        0 13 5 6</rect></_>
    <_>
      <rect>
        0 13 6 7</rect></_>
    <_>
      <rect>
        0 14 6 11</rect></_>
    <_>
      <rect>
        0 16 6 6</rect></_>
    <_>
      <rect>
        0 16 11 5</rect></_>
    <_>
      <rect>
        0 20 6 5</rect></_>
    <_>
      <rect>
        0 21 3 6</rect></_>
    <_>
      <rect>
        0 23 3 13</rect></_>
    <_>
      <rect>
        0 25 4 7</rect></_>
    <_>
      <rect>
        0 33 5 10</rect></_>
    <_>
      <rect>
        0 34 16 18</rect></_>
    <_>
      <rect>
        0 36 19 17</rect></_>
    <_>
      <rect>
        0 43 20 15</rect></_>
    <_>
      <rect>
        0 44 14 11</rect></_>
    <_>
      <rect>
        0 46 21 10</rect></_>
    <_>
      <rect>
        0 50 18 12</rect></_>
    <_>
      <rect>
        2 41 6 9</rect></_>
    <_>
      <rect>
        6 8 7 6</rect></_>
    <_>
      <rect>
        6 40 13 7</rect></_>
    <_>
      <rect>
        6 50 19 11</rect></_>
    <_>
      <rect>
        8 26 15 12</rect></_>
    <_>
      <rect>
        9 48 9 6</rect></_>
    <_>
      <rect>
        11 32 9 10</rect></_>
    <_>
      <rect>
        12 2 17 9</rect></_>
    <_>
      <rect>
        12 34 2 2</rect></_>
    <_>
      <rect>
        14 2 11 7</rect></_>
    <_>
      <rect>
        15 29 3 3</rect></_>
    <_>
      <rect>
        15 29 9 5</rect></_>
    <_>
      <rect>
        15 42 7 3</rect></_>
    <_>
      <rect>
        18 58 5 3</rect></_>
    <_>
      <rect>
        20 8 14 7</rect></_>
    <_>
      <rect>
        21 23 3 2</rect></_>
    <_>
      <rect>
        21 46 12 10</rect></_>
    <_>
      <rect>
        21 56 3 3</rect></_>
    <_>
      <rect>
        22 55 4 5</rect></_>
    <_>
      <rect>
        23 22 6 2</rect></_>
    <_>
      <rect>
        24 1 13 8</rect></_>
    <_>
      <rect>
        24 18 3 2</rect></_>
    <_>
      <rect>
        24 29 3 2</rect></_>
    <_>
      <rect>
        24 42 4 9</rect></_>
    <_>
      <rect>
        24 54 3 3</rect></_>
    <_>
      <rect>
        25 15 6 3</rect></_>
    <_>
      <rect>
        25 36 12 17</rect></_>
    <_>
      <rect>
        25 40 6 3</rect></_>
    <_>
      <rect>
        25 41 2 10</rect></_>
    <_>
      <rect>
        26 26 3 3</rect></_>
    <_>
      <rect>
        26 33 5 3</rect></_>
    <_>
      <rect>
        27 37 6 3</rect></_>
    <_>
      <rect>
        27 48 11 7</rect></_>
    <_>
      <rect>
        28 23 3 2</rect></_>
    <_>
      <rect>
        28 23 5 6</rect></_>
    <_>
      <rect>
        28 45 6 2</rect></_>
    <_>
      <rect>
        28 50 10 5</rect></_>
    <_>
      <rect>
        29 6 6 4</rect></_>
    <_>
      <rect>
        30 1 11 7</rect></_>
    <_>
      <rect>
        30 50 7 6</rect></_>
    <_>
      <rect>
        30 53 8 7</rect></_>
    <_>
      <rect>
        31 14 5 4</rect></_>
    <_>
      <rect>
        31 22 3 3</rect></_>
    <_>
      <rect>
        31 39 3 3</rect></_>
    <_>
      <rect>
        32 6 10 7</rect></_>
    <_>
      <rect>
        34 22 2 1</rect></_>
    <_>
      <rect>
        34 42 6 2</rect></_>
    <_>
      <rect>
        34 47 8 6</rect></_>
    <_>
      <rect>
        35 45 8 6</rect></_>
    <_>
      <rect>
        36 44 8 6</rect></_>
    <_>
      <rect>
        36 52 8 3</rect></_>
    <_>
      <rect>
        37 32 3 2</rect></_>
    <_>
      <rect>
        37 50 7 5</rect></_>
    <_>
      <rect>
        37 51 8 6</rect></_>
    <_>
      <rect>
        37 57 5 2</rect></_>
    <_>
      <rect>
        38 24 4 11</rect></_>
    <_>
      <rect>
        38 43 4 5</rect></_>
    <_>
      <rect>
        38 44 8 4</rect></_>
    <_>
      <rect>
        38 48 5 5</rect></_>
    <_>
      <rect>
        39 9 8 7</rect></_>
    <_>
      <rect>
        39 22 4 1</rect></_>
    <_>
      <rect>
        39 46 7 4</rect></_>
    <_>
      <rect>
        40 4 7 5</rect></_>
    <_>
      <rect>
        40 26 3 2</rect></_>
    <_>
      <rect>
        41 31 2 1</rect></_>
    <_>
      <rect>
        41 35 2 2</rect></_>
    <_>
      <rect>
        41 47 3 3</rect></_>
    <_>
      <rect>
        41 48 6 4</rect></_>
    <_>
      <rect>
        42 9 7 10</rect></_>
    <_>
      <rect>
        42 19 7 17</rect></_>
    <_>
      <rect>
        42 32 3 5</rect></_>
    <_>
      <rect>
        42 35 3 7</rect></_>
    <_>
      <rect>
        42 48 3 2</rect></_>
    <_>
      <rect>
        43 0 6 5</rect></_>
    <_>
      <rect>
        43 40 4 3</rect></_>
    <_>
      <rect>
        43 43 4 3</rect></_>
    <_>
      <rect>
        43 49 6 4</rect></_>
    <_>
      <rect>
        44 33 3 2</rect></_>
    <_>
      <rect>
        45 14 6 5</rect></_>
    <_>
      <rect>
        46 20 5 3</rect></_>
    <_>
      <rect>
        46 29 2 2</rect></_>
    <_>
      <rect>
        46 33 2 5</rect></_>
    <_>
      <rect>
        46 42 5 2</rect></_>
    <_>
      <rect>
        47 25 1 1</rect></_>
    <_>
      <rect>
        47 45 5 3</rect></_>
    <_>
      <rect>
        48 5 5 28</rect></_>
    <_>
      <rect>
        48 11 5 13</rect></_>
    <_>
      <rect>
        48 22 5 8</rect></_>
    <_>
      <rect>
        48 37 5 9</rect></_>
    <_>
      <rect>
        48 38 5 7</rect></_>
    <_>
      <rect>
        48 40 5 4</rect></_>
    <_>
      <rect>
        51 19 4 4</rect></_>
    <_>
      <rect>
        51 21 4 5</rect></_>
    <_>
      <rect>
        51 22 4 7</rect></_>
    <_>
      <rect>
        51 37 4 8</rect></_>
    <_>
      <rect>
        51 38 4 3</rect></_>
    <_>
      <rect>
        54 28 3 14</rect></_>
    <_>
      <rect>
        54 45 3 6</rect></_>
    <_>
      <rect>
        57 13 2 20</rect></_></features></cascade>
</opencv_storage>
