<?xml version="1.0"?>
<opencv_storage>
<cascade>
  <stageType>BOOST</stageType>
  <featureType>LBP</featureType>
  <height>100</height>
  <width>100</width>
  <stageParams>
    <boostType>GAB</boostType>
    <minHitRate>9.9900001287460327e-01</minHitRate>
    <maxFalseAlarm>5.0000000000000000e-01</maxFalseAlarm>
    <weightTrimRate>9.4999999999999996e-01</weightTrimRate>
    <maxDepth>1</maxDepth>
    <maxWeakCount>100</maxWeakCount></stageParams>
  <featureParams>
    <maxCatCount>256</maxCatCount>
    <featSize>1</featSize></featureParams>
  <stageNum>20</stageNum>
  <stages>
    <!-- stage 0 -->
    <_>
      <maxWeakCount>4</maxWeakCount>
      <stageThreshold>-1.8909571170806885e+00</stageThreshold>
      <weakClassifiers>
        <_>
          <internalNodes>
            0 -1 49 -2097153 -180359777 1368085469 -10749481 -3147001
            -968687597 -486026681 -134218753</internalNodes>
          <leafValues>
            -8.2199543714523315e-01 7.9552716016769409e-01</leafValues></_>
        <_>
          <internalNodes>
            0 -1 56 -203423809 -145229877 1665917523 1917308799
            1162855306 1392714265 1405874590 1937767231</internalNodes>
          <leafValues>
            -9.2008501291275024e-01 5.9585231542587280e-01</leafValues></_>
        <_>
          <internalNodes>
            0 -1 45 2004877311 -174067233 -721301037 -79200309
            1397744246 1900752931 890238321 -1757424289</internalNodes>
          <leafValues>
            -7.5933253765106201e-01 5.9486544132232666e-01</leafValues></_>
        <_>
          <internalNodes>
            0 -1 101 -209 -268438102 -1861755503 -419434105 -171312522
            1644888637 -2756108 -136314881</internalNodes>
          <leafValues>
            -7.2618937492370605e-01 6.1045587062835693e-01</leafValues></_></weakClassifiers></_>
    <!-- stage 1 -->
    <_>
      <maxWeakCount>5</maxWeakCount>
      <stageThreshold>-1.4766626358032227e+00</stageThreshold>
      <weakClassifiers>
        <_>
          <internalNodes>
            0 -1 42 -2621473 -144706029 -779290401 -265521 1093328783
            1363214603 1104925615 1432353787</internalNodes>
          <leafValues>
            -9.0292555093765259e-01 5.4628854990005493e-01</leafValues></_>
        <_>
          <internalNodes>
            0 -1 39 -547357697 -1082534401 -1790633538 -537538057
            -205980849 1126936680 -242682921 -202388581</internalNodes>
          <leafValues>
            -8.0254733562469482e-01 4.8591679334640503e-01</leafValues></_>
        <_>
          <internalNodes>
            0 -1 128 -488971542 -141048609 1175486663 -533529649
            -2081706101 -486138102 1170989995 -164893141</internalNodes>
          <leafValues>
            -7.8499597311019897e-01 5.3338724374771118e-01</leafValues></_>
        <_>
          <internalNodes>
            0 -1 72 -254287133 -141823901 1352257758 2073819894
            1172243979 1292730637 344490907 1939862171</internalNodes>
          <leafValues>
            -7.4256539344787598e-01 5.4048466682434082e-01</leafValues></_>
        <_>
          <internalNodes>
            0 -1 47 -41985 -2108525 1082507678 965722127 2026358383
            927901706 -710950201 363855087</internalNodes>
          <leafValues>
            -8.2380998134613037e-01 4.7332152724266052e-01</leafValues></_></weakClassifiers></_>
    <!-- stage 2 -->
    <_>
      <maxWeakCount>5</maxWeakCount>
      <stageThreshold>-2.1336998939514160e+00</stageThreshold>
      <weakClassifiers>
        <_>
          <internalNodes>
            0 -1 66 -2098253 -9438369 289509155 -69343413 -1025774613
            1130091275 -779376146 2011168255</internalNodes>
          <leafValues>
            -8.0426096916198730e-01 4.2048293352127075e-01</leafValues></_>
        <_>
          <internalNodes>
            0 -1 126 -153170770 -137901297 1088285143 1884340959
            -942690389 -216145770 -595133441 -81003589</internalNodes>
          <leafValues>
            -6.7872345447540283e-01 4.7174280881881714e-01</leafValues></_>
        <_>
          <internalNodes>
            0 -1 50 -1621098497 -1748246057 -518413831 -1143085585
            -315885211 -1972933879 -321915275 -672142353</internalNodes>
          <leafValues>
            -7.0957040786743164e-01 4.6592172980308533e-01</leafValues></_>
        <_>
          <internalNodes>
            0 -1 137 -34865 -280509569 -666283049 -1091710306 2079169503
            587976807 -687080481 -707264937</internalNodes>
          <leafValues>
            -5.9942060708999634e-01 5.3695672750473022e-01</leafValues></_>
        <_>
          <internalNodes>
            0 -1 35 -68167689 2071159571 -620522418 -146283725
            1107362957 -518438896 1115785882 -593494390</internalNodes>
          <leafValues>
            -5.4581749439239502e-01 6.5827548503875732e-01</leafValues></_></weakClassifiers></_>
    <!-- stage 3 -->
    <_>
      <maxWeakCount>5</maxWeakCount>
      <stageThreshold>-1.2779996395111084e+00</stageThreshold>
      <weakClassifiers>
        <_>
          <internalNodes>
            0 -1 110 -1025513745 -10527817 43816117 -228690849
            1203488655 -346043603 -674762833 -138416225</internalNodes>
          <leafValues>
            -7.1732330322265625e-01 4.0217390656471252e-01</leafValues></_>
        <_>
          <internalNodes>
            0 -1 70 -754998537 -11537027 -1252271401 -11806554
            1389061087 -615857717 1892242338 -134523146</internalNodes>
          <leafValues>
            -6.5182858705520630e-01 4.9187731742858887e-01</leafValues></_>
        <_>
          <internalNodes>
            0 -1 32 2002778111 2103288207 -812526476 -37525738
            1728767918 -1385275160 2012176895 1497319259</internalNodes>
          <leafValues>
            -6.8437278270721436e-01 4.4366666674613953e-01</leafValues></_>
        <_>
          <internalNodes>
            0 -1 67 -1277219537 -850667301 -251423242 -992882301
            -609486802 -105938261 596639559 -422071897</internalNodes>
          <leafValues>
            -6.9683212041854858e-01 4.1987654566764832e-01</leafValues></_>
        <_>
          <internalNodes>
            0 -1 58 1029045247 -1357281073 268964063 -648969959
            -477511873 1729075307 -1542786063 1946082031</internalNodes>
          <leafValues>
            -7.7239090204238892e-01 3.6983445286750793e-01</leafValues></_></weakClassifiers></_>
    <!-- stage 4 -->
    <_>
      <maxWeakCount>6</maxWeakCount>
      <stageThreshold>-1.7806689739227295e+00</stageThreshold>
      <weakClassifiers>
        <_>
          <internalNodes>
            0 -1 113 -486806785 -3046433 -771630759 1917043487
            1117769679 -475068797 1406132111 -206585185</internalNodes>
          <leafValues>
            -7.0204603672027588e-01 3.4679543972015381e-01</leafValues></_>
        <_>
          <internalNodes>
            0 -1 83 -540017860 -273681497 -1072592673 -548941757
            -873474735 119138827 -275975174 2010892953</internalNodes>
          <leafValues>
            -7.6577657461166382e-01 3.2689049839973450e-01</leafValues></_>
        <_>
          <internalNodes>
            0 -1 98 -229114129 -547577077 -636386981 -259845811 58390239
            1999339785 1942909426 -753998641</internalNodes>
          <leafValues>
            -6.0209012031555176e-01 4.1657561063766479e-01</leafValues></_>
        <_>
          <internalNodes>
            0 -1 159 -729333234 1567707478 1342264261 2069483854
            -217798385 -745775101 -82784577 1895985687</internalNodes>
          <leafValues>
            -5.8511173725128174e-01 4.6714633703231812e-01</leafValues></_>
        <_>
          <internalNodes>
            0 -1 9 -33557543 -31 -184550050 -1114113 1976342441
            -2008785651 1423810506 -1729102353</internalNodes>
          <leafValues>
            -4.8641076683998108e-01 5.5324470996856689e-01</leafValues></_>
        <_>
          <internalNodes>
            0 -1 96 -433720669 1742591135 1350653014 1917798094
            -805581875 120129578 -677708923 1734069227</internalNodes>
          <leafValues>
            -8.1841653585433960e-01 3.1192472577095032e-01</leafValues></_></weakClassifiers></_>
    <!-- stage 5 -->
    <_>
      <maxWeakCount>8</maxWeakCount>
      <stageThreshold>-1.2025815248489380e+00</stageThreshold>
      <weakClassifiers>
        <_>
          <internalNodes>
            0 -1 114 -229380369 -551826801 -1709090915 1974465143
            -225556725 -276102885 -207780257 -10532001</internalNodes>
          <leafValues>
            -6.2920707464218140e-01 4.2105263471603394e-01</leafValues></_>
        <_>
          <internalNodes>
            0 -1 57 763575231 -2410276 150997490 -539393654 -1280124133
            860547176 1401604048 1191701211</internalNodes>
          <leafValues>
            -7.9910224676132202e-01 2.8463515639305115e-01</leafValues></_>
        <_>
          <internalNodes>
            0 -1 21 -52560161 -12593856 -1287948079 -81796959 1897464713
            1006635784 1438726286 -1999771510</internalNodes>
          <leafValues>
            -6.0714501142501831e-01 3.4745517373085022e-01</leafValues></_>
        <_>
          <internalNodes>
            0 -1 75 -231683369 -539761407 -1023081727 -301497971
            1662706223 -619855858 1627845895 -214155046</internalNodes>
          <leafValues>
            -5.6853133440017700e-01 4.2036375403404236e-01</leafValues></_>
        <_>
          <internalNodes>
            0 -1 5 420984586 -788249331 -180317946 -754580732 855777262
            -929398548 285802991 -230419872</internalNodes>
          <leafValues>
            -5.4412341117858887e-01 4.2153859138488770e-01</leafValues></_>
        <_>
          <internalNodes>
            0 -1 82 1770765263 -1395160937 -1073610537 1277003993
            431715183 697178120 1855700724 -993140029</internalNodes>
          <leafValues>
            -5.7568216323852539e-01 3.9638313651084900e-01</leafValues></_>
        <_>
          <internalNodes>
            0 -1 151 -32616954 1342324800 1913733521 319758677
            -665654742 -251415668 -2071607074 1145053681</internalNodes>
          <leafValues>
            -7.7034550905227661e-01 3.0198499560356140e-01</leafValues></_>
        <_>
          <internalNodes>
            0 -1 27 1482122958 -79445880 973394558 -1865400301
            2069692892 -1932686455 -1681229636 194174986</internalNodes>
          <leafValues>
            -6.1778593063354492e-01 3.8239794969558716e-01</leafValues></_></weakClassifiers></_>
    <!-- stage 6 -->
    <_>
      <maxWeakCount>8</maxWeakCount>
      <stageThreshold>-1.0446842908859253e+00</stageThreshold>
      <weakClassifiers>
        <_>
          <internalNodes>
            0 -1 63 -19958818 -171363690 1074037023 -985556293
            -1684557993 -343889873 -170330555 -1513364737</internalNodes>
          <leafValues>
            -7.5452399253845215e-01 1.7877094447612762e-01</leafValues></_>
        <_>
          <internalNodes>
            0 -1 59 -209991014 -178611723 -1987209173 -3302195 834209167
            -611775860 865031577 -71547377</internalNodes>
          <leafValues>
            -5.3438162803649902e-01 4.3405711650848389e-01</leafValues></_>
        <_>
          <internalNodes>
            0 -1 122 -534781237 -15621667 -435080122 -233350830
            1469045071 1872476426 -188042545 -143660280</internalNodes>
          <leafValues>
            -5.3557562828063965e-01 4.1649404168128967e-01</leafValues></_>
        <_>
          <internalNodes>
            0 -1 78 -648963538 -816578343 -1068953230 -149880807
            -1182225569 1332423776 -2004186678 -140846967</internalNodes>
          <leafValues>
            -5.7617598772048950e-01 4.0964677929878235e-01</leafValues></_>
        <_>
          <internalNodes>
            0 -1 29 -74192160 -607002119 -490597868 -710557245
            1345055255 1218969736 366736118 -736515527</internalNodes>
          <leafValues>
            -6.0800319910049438e-01 3.9011889696121216e-01</leafValues></_>
        <_>
          <internalNodes>
            0 -1 149 1595405231 -1356926657 406970766 -694164931
            831371607 1944388779 -1475751104 -445269246</internalNodes>
          <leafValues>
            -5.4509562253952026e-01 4.0038618445396423e-01</leafValues></_>
        <_>
          <internalNodes>
            0 -1 125 -264179996 2135967749 -1877721001 1266808157
            -951139417 -480935923 -1063496892 -946298447</internalNodes>
          <leafValues>
            -6.5202182531356812e-01 2.9779046773910522e-01</leafValues></_>
        <_>
          <internalNodes>
            0 -1 103 -260977930 -346913327 427939225 -1097690601
            -755334242 -301260776 -125818037 273224221</internalNodes>
          <leafValues>
            -6.3819152116775513e-01 3.3168026804924011e-01</leafValues></_></weakClassifiers></_>
    <!-- stage 7 -->
    <_>
      <maxWeakCount>8</maxWeakCount>
      <stageThreshold>-1.3860220909118652e+00</stageThreshold>
      <weakClassifiers>
        <_>
          <internalNodes>
            0 -1 52 -211813413 -1505245 -754852965 -79182265 1670085549
            -359042165 1403729855 -7379105</internalNodes>
          <leafValues>
            -6.0624247789382935e-01 2.9604628682136536e-01</leafValues></_>
        <_>
          <internalNodes>
            0 -1 81 -631907377 1066471633 269549789 -233844394
            2004989919 1984628763 -1232473626 1469889168</internalNodes>
          <leafValues>
            -7.8750240802764893e-01 2.3967017233371735e-01</leafValues></_>
        <_>
          <internalNodes>
            0 -1 111 -456662582 -1026731657 -900685628 1650353255
            -823402043 1292848718 -427109441 2000670925</internalNodes>
          <leafValues>
            -8.2388478517532349e-01 1.9756916165351868e-01</leafValues></_>
        <_>
          <internalNodes>
            0 -1 152 -136420274 1364485688 294228219 2066835410
            -241375195 -134143742 -202585762 1613824543</internalNodes>
          <leafValues>
            -6.2296521663665771e-01 3.0949062108993530e-01</leafValues></_>
        <_>
          <internalNodes>
            0 -1 17 -144871332 -310148985 -486305614 -239917951
            1229164109 -58137384 1648092411 -652935048</internalNodes>
          <leafValues>
            -5.0435990095138550e-01 3.9222547411918640e-01</leafValues></_>
        <_>
          <internalNodes>
            0 -1 85 -83668720 1460107533 17842177 34586794 -1902450643
            75827563 -880545396 1402972585</internalNodes>
          <leafValues>
            -7.3127669095993042e-01 2.5576794147491455e-01</leafValues></_>
        <_>
          <internalNodes>
            0 -1 145 328676327 -2122245239 1360057347 -328920670
            -2138370731 -641564543 1904281719 -825954011</internalNodes>
          <leafValues>
            -5.9749799966812134e-01 3.0484184622764587e-01</leafValues></_>
        <_>
          <internalNodes>
            0 -1 24 -604382249 -610561175 1356854294 -73492351
            1968542599 -1471660920 1355616698 -1195788048</internalNodes>
          <leafValues>
            -5.2538388967514038e-01 3.8843882083892822e-01</leafValues></_></weakClassifiers></_>
    <!-- stage 8 -->
    <_>
      <maxWeakCount>8</maxWeakCount>
      <stageThreshold>-1.7808935642242432e+00</stageThreshold>
      <weakClassifiers>
        <_>
          <internalNodes>
            0 -1 92 -94394693 -11099246 268770779 -15742866 2005083199
            -81159910 1997502235 -4381939</internalNodes>
          <leafValues>
            -6.1504143476486206e-01 2.3104056715965271e-01</leafValues></_>
        <_>
          <internalNodes>
            0 -1 53 -1953248801 -1886758856 436209053 -6483683
            1242277951 1338869768 -754351740 -2014605429</internalNodes>
          <leafValues>
            -5.6194758415222168e-01 2.9219311475753784e-01</leafValues></_>
        <_>
          <internalNodes>
            0 -1 155 803208499 1852152263 1879380207 -286891052
            -1534723465 -1514221183 936632928 -176292032</internalNodes>
          <leafValues>
            -5.8215785026550293e-01 2.8847116231918335e-01</leafValues></_>
        <_>
          <internalNodes>
            0 -1 123 394410493 168310215 1359579843 1820463198
            1619933567 126026379 -804553977 -2065668537</internalNodes>
          <leafValues>
            -6.8708658218383789e-01 2.7545702457427979e-01</leafValues></_>
        <_>
          <internalNodes>
            0 -1 36 -8390663 -14 -2 -524430 1476214159 -2048950832
            1431789491 -570425398</internalNodes>
          <leafValues>
            -3.9313852787017822e-01 4.8595386743545532e-01</leafValues></_>
        <_>
          <internalNodes>
            0 -1 141 -229195694 1912930417 285282625 1372971648
            -260841202 -209549280 -1737957141 -99972590</internalNodes>
          <leafValues>
            -5.0630152225494385e-01 3.9805555343627930e-01</leafValues></_>
        <_>
          <internalNodes>
            0 -1 74 -924941822 -544734937 1073760516 486971186 21849805
            -544995194 890069666 -184330816</internalNodes>
          <leafValues>
            -6.1904233694076538e-01 2.7959445118904114e-01</leafValues></_>
        <_>
          <internalNodes>
            0 -1 0 -1095972148 -769620092 -250560368 -838331920
            -654255189 -1064140671 -916536180 -636858306</internalNodes>
          <leafValues>
            -5.8171516656875610e-01 3.1114006042480469e-01</leafValues></_></weakClassifiers></_>
    <!-- stage 9 -->
    <_>
      <maxWeakCount>9</maxWeakCount>
      <stageThreshold>-1.1687085628509521e+00</stageThreshold>
      <weakClassifiers>
        <_>
          <internalNodes>
            0 -1 26 -13389825 -622263663 -97839577 -201841781 1399765246
            -91551302 1656628203 -578850018</internalNodes>
          <leafValues>
            -6.1136811971664429e-01 1.8655462563037872e-01</leafValues></_>
        <_>
          <internalNodes>
            0 -1 46 -1852032594 -956202037 -670776930 1564639248
            -1160828857 -1491355034 -408357033 -477583176</internalNodes>
          <leafValues>
            -7.2656083106994629e-01 2.2444330155849457e-01</leafValues></_>
        <_>
          <internalNodes>
            0 -1 116 -226827580 -1727822700 1917699929 1792008413
            -704665969 -740212471 2002188105 -17964903</internalNodes>
          <leafValues>
            -5.3589284420013428e-01 3.3401358127593994e-01</leafValues></_>
        <_>
          <internalNodes>
            0 -1 84 -1065311146 -330288993 806799893 1494978954
            -1328979081 -1901985679 -1201562009 1428440386</internalNodes>
          <leafValues>
            -6.8179440498352051e-01 2.9319936037063599e-01</leafValues></_>
        <_>
          <internalNodes>
            0 -1 108 -1987983921 -380255151 -1325329966 -166391523
            -2004314037 2131263496 -1735488633 -140830711</internalNodes>
          <leafValues>
            -6.3551545143127441e-01 2.6298370957374573e-01</leafValues></_>
        <_>
          <internalNodes>
            0 -1 25 88933292 -645840893 -1185876232 328007947 1766386171
            -2004877183 -2127812210 1057553034</internalNodes>
          <leafValues>
            -5.2125012874603271e-01 3.2983177900314331e-01</leafValues></_>
        <_>
          <internalNodes>
            0 -1 144 624158169 -1995893375 -1856941631 -1403005173
            1745620997 1115771280 58738695 -460312831</internalNodes>
          <leafValues>
            -6.2003403902053833e-01 2.7633875608444214e-01</leafValues></_>
        <_>
          <internalNodes>
            0 -1 162 -203552531 2110001160 -1837088358 138597123
            -1059460960 1078124554 -536702289 672160295</internalNodes>
          <leafValues>
            -6.3232481479644775e-01 2.4908556044101715e-01</leafValues></_>
        <_>
          <internalNodes>
            0 -1 88 -1303726394 -955644666 1426099978 1552419597
            571116139 -1358594038 1674572466 -1488370273</internalNodes>
          <leafValues>
            -5.0278854370117188e-01 3.6822798848152161e-01</leafValues></_></weakClassifiers></_>
    <!-- stage 10 -->
    <_>
      <maxWeakCount>10</maxWeakCount>
      <stageThreshold>-1.3185719251632690e+00</stageThreshold>
      <weakClassifiers>
        <_>
          <internalNodes>
            0 -1 34 -88136705 -574387752 -931097890 -3866467 1931184763
            723232782 660702596 -1612002357</internalNodes>
          <leafValues>
            -6.0731214284896851e-01 1.5823817253112793e-01</leafValues></_>
        <_>
          <internalNodes>
            0 -1 73 819964107 -1084947315 -796533506 -489802504
            2030913035 -12517304 1737979599 -1500570967</internalNodes>
          <leafValues>
            -5.6900036334991455e-01 2.6643151044845581e-01</leafValues></_>
        <_>
          <internalNodes>
            0 -1 106 -1299264793 -674004984 -66581373 2118521322
            546808491 386531362 321860534 -137792800</internalNodes>
          <leafValues>
            -5.6953996419906616e-01 2.6684302091598511e-01</leafValues></_>
        <_>
          <internalNodes>
            0 -1 71 -170552696 -812126197 -1862265400 -581382144
            -108468132 55152658 -1291066732 1204460299</internalNodes>
          <leafValues>
            -6.7872476577758789e-01 2.5214862823486328e-01</leafValues></_>
        <_>
          <internalNodes>
            0 -1 105 -1340382525 -49700795 1447116881 2103386129
            1204539329 -145636216 436680964 579470001</internalNodes>
          <leafValues>
            -5.9299981594085693e-01 2.9960212111473083e-01</leafValues></_>
        <_>
          <internalNodes>
            0 -1 148 -258782649 1402520019 -2013163020 1364455870
            -652623541 2041184779 -577529062 -181372613</internalNodes>
          <leafValues>
            -4.6527397632598877e-01 4.1346219182014465e-01</leafValues></_>
        <_>
          <internalNodes>
            0 -1 157 -205019346 -648969893 605077702 -2078887662
            -125113234 1369800722 -775124008 -250037529</internalNodes>
          <leafValues>
            -5.9244632720947266e-01 3.0423375964164734e-01</leafValues></_>
        <_>
          <internalNodes>
            0 -1 51 -143280198 1866444799 1048051455 -302055425
            1979026819 -1879310627 -2105457 -571360078</internalNodes>
          <leafValues>
            -3.6868834495544434e-01 5.1241576671600342e-01</leafValues></_>
        <_>
          <internalNodes>
            0 -1 147 2110862703 -1420979965 -804188147 -86238439
            -1308025790 1259049226 -1323394557 -183432931</internalNodes>
          <leafValues>
            -4.9190244078636169e-01 3.7056159973144531e-01</leafValues></_>
        <_>
          <internalNodes>
            0 -1 23 134566124 2114490432 68219174 378945 2024115660
            207400078 -133994051 551131561</internalNodes>
          <leafValues>
            -5.7511484622955322e-01 3.1659772992134094e-01</leafValues></_></weakClassifiers></_>
    <!-- stage 11 -->
    <_>
      <maxWeakCount>11</maxWeakCount>
      <stageThreshold>-1.5793668031692505e+00</stageThreshold>
      <weakClassifiers>
        <_>
          <internalNodes>
            0 -1 150 -204999937 1465765972 -729562181 1371795949
            -357373861 848529505 -394011905 -1167789473</internalNodes>
          <leafValues>
            -5.0025761127471924e-01 3.5170602798461914e-01</leafValues></_>
        <_>
          <internalNodes>
            0 -1 64 -1056837185 -1987772143 1090535935 -955674299
            -1668690561 -1433763654 -2012706601 -1148991090</internalNodes>
          <leafValues>
            -5.2579247951507568e-01 3.2166817784309387e-01</leafValues></_>
        <_>
          <internalNodes>
            0 -1 43 -84151843 1229594694 1004112585 -37322719 1899329571
            -1423297402 1934314126 -1917068142</internalNodes>
          <leafValues>
            -4.2890089750289917e-01 3.8342911005020142e-01</leafValues></_>
        <_>
          <internalNodes>
            0 -1 133 64957435 717849415 -1064709703 -824510050 699076460
            -1842658809 1405713189 -856360075</internalNodes>
          <leafValues>
            -6.2870502471923828e-01 2.6233100891113281e-01</leafValues></_>
        <_>
          <internalNodes>
            0 -1 68 -209524611 -251539046 -1043501822 702499353
            -207810617 -1868038018 -202441137 -257338703</internalNodes>
          <leafValues>
            -4.2825111746788025e-01 4.3322512507438660e-01</leafValues></_>
        <_>
          <internalNodes>
            0 -1 55 -1817633377 -204635469 285212714 -1148518394
            -1179940580 1393201226 1135252436 1473231498</internalNodes>
          <leafValues>
            -7.2075372934341431e-01 2.9596355557441711e-01</leafValues></_>
        <_>
          <internalNodes>
            0 -1 16 1788348409 -2124872892 2277645 1359902 8598109
            1745420332 -2130058305 -666437045</internalNodes>
          <leafValues>
            -4.9937093257904053e-01 3.5173261165618896e-01</leafValues></_>
        <_>
          <internalNodes>
            0 -1 90 -234446217 1929417216 654381515 -1916698358
            805450677 -349560821 826282718 -230338140</internalNodes>
          <leafValues>
            -5.2335911989212036e-01 3.5326901078224182e-01</leafValues></_>
        <_>
          <internalNodes>
            0 -1 160 -565515514 -750694255 557302 1821937818 -125119142
            1929969674 478192100 -1269249980</internalNodes>
          <leafValues>
            -6.5535110235214233e-01 2.4784962832927704e-01</leafValues></_>
        <_>
          <internalNodes>
            0 -1 4 -2142583574 173064258 1410334879 105054275
            -1039207542 -1567965000 -2130198069 -1333499133</internalNodes>
          <leafValues>
            -5.0332218408584595e-01 3.7666302919387817e-01</leafValues></_>
        <_>
          <internalNodes>
            0 -1 8 1580514263 -1141116171 -1297086460 -207567600
            56209070 482411117 1410423614 -855911709</internalNodes>
          <leafValues>
            -5.0048714876174927e-01 3.6846908926963806e-01</leafValues></_></weakClassifiers></_>
    <!-- stage 12 -->
    <_>
      <maxWeakCount>10</maxWeakCount>
      <stageThreshold>-9.6205335855484009e-01</stageThreshold>
      <weakClassifiers>
        <_>
          <internalNodes>
            0 -1 60 -238027793 1938636939 -5416036 -581971854 -201374261
            -1295359480 -276602981 -72658025</internalNodes>
          <leafValues>
            -4.7331669926643372e-01 3.5243552923202515e-01</leafValues></_>
        <_>
          <internalNodes>
            0 -1 134 -783555633 -1483238953 285331477 -1366667124
            -1291764950 67305476 -83785085 1439906315</internalNodes>
          <leafValues>
            -6.0776644945144653e-01 2.4512977898120880e-01</leafValues></_>
        <_>
          <internalNodes>
            0 -1 132 140714367 248681375 -922071029 -830058869 650325524
            -1165786743 1913403764 -522912032</internalNodes>
          <leafValues>
            -7.2098273038864136e-01 2.0167544484138489e-01</leafValues></_>
        <_>
          <internalNodes>
            0 -1 143 -246946806 2101805521 -2075868286 1355791576
            -1023307506 1082198144 1552060579 1430903275</internalNodes>
          <leafValues>
            -4.8085251450538635e-01 3.4325161576271057e-01</leafValues></_>
        <_>
          <internalNodes>
            0 -1 130 -153665332 1887441050 1149243675 -795758518
            -74740941 993755178 671930876 942733330</internalNodes>
          <leafValues>
            -5.4030346870422363e-01 3.0973678827285767e-01</leafValues></_>
        <_>
          <internalNodes>
            0 -1 112 -169348824 -1378102900 302029070 -159125107
            -1982930092 453357577 1250660485 1202694281</internalNodes>
          <leafValues>
            -5.6893903017044067e-01 2.6498594880104065e-01</leafValues></_>
        <_>
          <internalNodes>
            0 -1 117 -95304961 -16721893 -738117295 -620652278
            1728819851 -618788839 -1264438290 -614969728</internalNodes>
          <leafValues>
            -4.1461780667304993e-01 4.2170688509941101e-01</leafValues></_>
        <_>
          <internalNodes>
            0 -1 2 -338767682 1821168264 114688 -2116886454 -1022984054
            -1056899038 -1073504118 680001666</internalNodes>
          <leafValues>
            -5.4977631568908691e-01 3.3549273014068604e-01</leafValues></_>
        <_>
          <internalNodes>
            0 -1 19 -645899297 -645836335 2013360220 -398388985
            589060106 -1399831935 1989798143 2062000665</internalNodes>
          <leafValues>
            -4.2482891678810120e-01 4.4709202647209167e-01</leafValues></_>
        <_>
          <internalNodes>
            0 -1 10 1051642851 2142215850 -45324 -658505838 1182556135
            1879048186 -536879650 -33532432</internalNodes>
          <leafValues>
            -4.0852847695350647e-01 4.5596534013748169e-01</leafValues></_></weakClassifiers></_>
    <!-- stage 13 -->
    <_>
      <maxWeakCount>12</maxWeakCount>
      <stageThreshold>-1.3321430683135986e+00</stageThreshold>
      <weakClassifiers>
        <_>
          <internalNodes>
            0 -1 62 -218628627 -1646288826 -743442227 1911460052
            1474185679 -1213030256 2008733169 -72402794</internalNodes>
          <leafValues>
            -5.4174065589904785e-01 2.0907297730445862e-01</leafValues></_>
        <_>
          <internalNodes>
            0 -1 100 -1551397233 -1752874812 362008767 -175390693
            1289170735 4295042 -611582985 -708779386</internalNodes>
          <leafValues>
            -4.5451793074607849e-01 3.2889547944068909e-01</leafValues></_>
        <_>
          <internalNodes>
            0 -1 158 -207098074 1697583450 1090556550 -1744691112
            2021820500 1796571136 -1923355978 -743247689</internalNodes>
          <leafValues>
            -5.5787587165832520e-01 2.5566253066062927e-01</leafValues></_>
        <_>
          <internalNodes>
            0 -1 156 804230451 -833076815 -519485624 -287534694
            -627854982 -1072480111 -1275063550 -552209820</internalNodes>
          <leafValues>
            -4.7159954905509949e-01 3.3263978362083435e-01</leafValues></_>
        <_>
          <internalNodes>
            0 -1 127 1054039775 629641502 -2145842800 -33466212
            -645764287 1065517441 453644402 -992703986</internalNodes>
          <leafValues>
            -5.2725917100906372e-01 2.9756066203117371e-01</leafValues></_>
        <_>
          <internalNodes>
            0 -1 1 2098216750 -1785423800 -1384049234 -780075001
            705498063 -662175606 168193247 -543882752</internalNodes>
          <leafValues>
            -4.8291200399398804e-01 3.1443142890930176e-01</leafValues></_>
        <_>
          <internalNodes>
            0 -1 119 -1441755629 1359555310 1074082058 -1710817260
            13361818 -1325035488 76129180 -1340340055</internalNodes>
          <leafValues>
            -6.4260065555572510e-01 2.4880960583686829e-01</leafValues></_>
        <_>
          <internalNodes>
            0 -1 15 467218914 1902479504 -1056951994 417562969
            1352434846 1479584417 956594672 267569738</internalNodes>
          <leafValues>
            -5.1464706659317017e-01 3.2189550995826721e-01</leafValues></_>
        <_>
          <internalNodes>
            0 -1 131 -174624289 621499157 134283345 -288030694 520697907
            1720303616 2038639363 -1002259701</internalNodes>
          <leafValues>
            -5.9614837169647217e-01 2.8772166371345520e-01</leafValues></_>
        <_>
          <internalNodes>
            0 -1 104 -1874344842 -652439416 151331181 -1794891375
            -1263508621 -30801918 562887421 879261493</internalNodes>
          <leafValues>
            -5.5560451745986938e-01 3.0861288309097290e-01</leafValues></_>
        <_>
          <internalNodes>
            0 -1 146 -100876037 2139062222 805306110 998162175
            -285299963 1073709055 -8793797 -210217714</internalNodes>
          <leafValues>
            -4.0568670630455017e-01 4.4611594080924988e-01</leafValues></_>
        <_>
          <internalNodes>
            0 -1 13 1120724668 -719388324 -2138580914 424980810
            830528511 -788447224 -612234758 2010455947</internalNodes>
          <leafValues>
            -4.1017776727676392e-01 4.6159225702285767e-01</leafValues></_></weakClassifiers></_>
    <!-- stage 14 -->
    <_>
      <maxWeakCount>9</maxWeakCount>
      <stageThreshold>-1.6586712598800659e+00</stageThreshold>
      <weakClassifiers>
        <_>
          <internalNodes>
            0 -1 69 -606105945 -1022557694 88346415 -586481013
            1930070831 139008538 1997530022 -169944664</internalNodes>
          <leafValues>
            -5.8021390438079834e-01 1.3670256733894348e-01</leafValues></_>
        <_>
          <internalNodes>
            0 -1 89 2056512238 -612368255 807672028 -771159369
            -359501042 -130145933 -1287113967 -166955447</internalNodes>
          <leafValues>
            -5.9728783369064331e-01 2.1453368663787842e-01</leafValues></_>
        <_>
          <internalNodes>
            0 -1 48 367903582 298422872 138414207 -1647804389
            -1762334697 -918549988 -2137787546 -2025262358</internalNodes>
          <leafValues>
            -6.8149811029434204e-01 2.1653866767883301e-01</leafValues></_>
        <_>
          <internalNodes>
            0 -1 44 -344612009 571114644 -1106673647 -934866560
            1437828891 641867928 2009227162 -645851000</internalNodes>
          <leafValues>
            -4.5935434103012085e-01 3.4356728196144104e-01</leafValues></_>
        <_>
          <internalNodes>
            0 -1 161 -669189329 1581010957 34281625 -1181100004
            -2013036508 1384612889 -360646071 168098670</internalNodes>
          <leafValues>
            -4.4953554868698120e-01 3.7929731607437134e-01</leafValues></_>
        <_>
          <internalNodes>
            0 -1 129 499328447 176343493 560327 1184743683 1477339963
            -2134699895 -1039500297 2091973333</internalNodes>
          <leafValues>
            -6.0748577117919922e-01 2.5768259167671204e-01</leafValues></_>
        <_>
          <internalNodes>
            0 -1 97 -624367103 -754970164 805314702 -989326958 302200718
            -1928716669 377743254 -410696235</internalNodes>
          <leafValues>
            -5.2596902847290039e-01 3.3015766739845276e-01</leafValues></_>
        <_>
          <internalNodes>
            0 -1 37 135545589 -2079239174 -532581029 -225595389
            -1467526827 -892305262 -1958786920 -2060693296</internalNodes>
          <leafValues>
            -5.8069765567779541e-01 2.5608485937118530e-01</leafValues></_>
        <_>
          <internalNodes>
            0 -1 54 -1956575872 1593270613 -2147139293 1025081860
            207141859 26241400 -1441881822 1567891603</internalNodes>
          <leafValues>
            -6.7660641670227051e-01 2.5724413990974426e-01</leafValues></_></weakClassifiers></_>
    <!-- stage 15 -->
    <_>
      <maxWeakCount>10</maxWeakCount>
      <stageThreshold>-1.2475981712341309e+00</stageThreshold>
      <weakClassifiers>
        <_>
          <internalNodes>
            0 -1 91 -1295456050 329056666 544019538 201816257 -405827706
            -1281408831 902278169 -50617959</internalNodes>
          <leafValues>
            -6.2281370162963867e-01 8.3573490381240845e-02</leafValues></_>
        <_>
          <internalNodes>
            0 -1 14 -823914644 1792879575 335661326 369401858
            -1304411733 999424704 -926270776 -349802902</internalNodes>
          <leafValues>
            -5.3327608108520508e-01 2.4148574471473694e-01</leafValues></_>
        <_>
          <internalNodes>
            0 -1 102 -1151491669 -1358245686 268522786 1325548107
            -1581225708 1351319752 -1341411132 352582284</internalNodes>
          <leafValues>
            -5.6322872638702393e-01 2.4355001747608185e-01</leafValues></_>
        <_>
          <internalNodes>
            0 -1 163 -3780980 1887454412 226541574 1128383043 1572900988
            -1006075638 -889010599 1342339342</internalNodes>
          <leafValues>
            -4.9156177043914795e-01 3.1586870551109314e-01</leafValues></_>
        <_>
          <internalNodes>
            0 -1 20 -682496050 989012144 -1073588973 -76905771
            1815490100 309371523 1390605039 -663647438</internalNodes>
          <leafValues>
            -4.9528929591178894e-01 3.0588442087173462e-01</leafValues></_>
        <_>
          <internalNodes>
            0 -1 18 1561862012 -804316086 1594214338 -1048443453
            587916269 -1610612606 2072719080 -951508158</internalNodes>
          <leafValues>
            -4.4617411494255066e-01 3.7307637929916382e-01</leafValues></_>
        <_>
          <internalNodes>
            0 -1 138 200935149 22118533 1342292369 -1462772897 -89982134
            -1182543480 889477905 -2069436760</internalNodes>
          <leafValues>
            -5.6672555208206177e-01 2.5938308238983154e-01</leafValues></_>
        <_>
          <internalNodes>
            0 -1 169 -895693662 -393142401 788003451 274317282
            -285226178 -1946171080 528080893 1599864683</internalNodes>
          <leafValues>
            -3.7383764982223511e-01 4.4473445415496826e-01</leafValues></_>
        <_>
          <internalNodes>
            0 -1 95 -853575415 -779415392 1074336016 851443860
            1233697673 1460210432 1124625204 321775628</internalNodes>
          <leafValues>
            -7.6026982069015503e-01 2.3142345249652863e-01</leafValues></_>
        <_>
          <internalNodes>
            0 -1 165 -2033464029 592494721 554025010 360947864
            1242092429 -964554743 -1580646332 -541068296</internalNodes>
          <leafValues>
            -4.2249482870101929e-01 3.8472029566764832e-01</leafValues></_></weakClassifiers></_>
    <!-- stage 16 -->
    <_>
      <maxWeakCount>11</maxWeakCount>
      <stageThreshold>-1.1100660562515259e+00</stageThreshold>
      <weakClassifiers>
        <_>
          <internalNodes>
            0 -1 140 -238958681 1449148770 268506329 1728143445
            -719475807 -209665644 -654192459 -403208433</internalNodes>
          <leafValues>
            -5.0540077686309814e-01 1.9703389704227448e-01</leafValues></_>
        <_>
          <internalNodes>
            0 -1 107 -498679424 -204537532 -2134896487 1078132770
            -2117163637 1942819469 -750077798 1489099200</internalNodes>
          <leafValues>
            -5.8266419172286987e-01 2.1755139529705048e-01</leafValues></_>
        <_>
          <internalNodes>
            0 -1 30 -1677667873 -644546559 16826781 -1727004666
            138414653 1042843784 1183334583 -995587966</internalNodes>
          <leafValues>
            -5.7023662328720093e-01 2.3248787224292755e-01</leafValues></_>
        <_>
          <internalNodes>
            0 -1 154 -99267866 1351897308 -771649324 60199352 -88018367
            1924874497 -1820028208 895015035</internalNodes>
          <leafValues>
            -4.9533811211585999e-01 3.2675427198410034e-01</leafValues></_>
        <_>
          <internalNodes>
            0 -1 6 75802936 1264375488 1128421108 211326980 853982617
            -1195360246 1132993176 -321787836</internalNodes>
          <leafValues>
            -5.6532269716262817e-01 2.4571208655834198e-01</leafValues></_>
        <_>
          <internalNodes>
            0 -1 65 1360078863 -2013263743 8508382 436207936 -1433823105
            -123174774 -1060459854 -1299142525</internalNodes>
          <leafValues>
            -6.0087341070175171e-01 2.4811519682407379e-01</leafValues></_>
        <_>
          <internalNodes>
            0 -1 121 285360111 215220234 141 -201228068 539691615
            84443266 -888472989 -2050964669</internalNodes>
          <leafValues>
            -5.4862320423126221e-01 2.8115871548652649e-01</leafValues></_>
        <_>
          <internalNodes>
            0 -1 76 -119882666 1636043088 -1757085680 104858632
            660555086 -802625469 -1214756344 -72608826</internalNodes>
          <leafValues>
            -5.0424003601074219e-01 3.2520738244056702e-01</leafValues></_>
        <_>
          <internalNodes>
            0 -1 31 537253956 -648760681 403244308 810849053 1976228318
            748160139 2074223365 764177165</internalNodes>
          <leafValues>
            -4.8600494861602783e-01 3.4924730658531189e-01</leafValues></_>
        <_>
          <internalNodes>
            0 -1 12 1659337772 1329860942 165285936 970784836 1610808059
            -1744273278 626576040 1312989799</internalNodes>
          <leafValues>
            -5.7102954387664795e-01 2.6930484175682068e-01</leafValues></_>
        <_>
          <internalNodes>
            0 -1 7 -804923651 274453269 1490205341 -519961600 -449117438
            -2111561152 1379154473 979038219</internalNodes>
          <leafValues>
            -4.7758147120475769e-01 3.4218940138816833e-01</leafValues></_></weakClassifiers></_>
    <!-- stage 17 -->
    <_>
      <maxWeakCount>11</maxWeakCount>
      <stageThreshold>-1.0324742794036865e+00</stageThreshold>
      <weakClassifiers>
        <_>
          <internalNodes>
            0 -1 40 -412759141 1495449610 -937197567 -1618882361
            1710294443 1930057793 932010782 -839954030</internalNodes>
          <leafValues>
            -6.1658841371536255e-01 5.9649121016263962e-02</leafValues></_>
        <_>
          <internalNodes>
            0 -1 124 -79499577 -754925568 1358954753 1430585437
            -248057975 -96427374 -753345758 -1576334826</internalNodes>
          <leafValues>
            -4.3637323379516602e-01 2.7854087948799133e-01</leafValues></_>
        <_>
          <internalNodes>
            0 -1 99 -149982975 -337157873 1342210200 1209995648
            -812674701 121964555 -1291119984 1393543176</internalNodes>
          <leafValues>
            -7.5897055864334106e-01 1.7876994609832764e-01</leafValues></_>
        <_>
          <internalNodes>
            0 -1 139 122886487 668418504 289444993 -1375215159
            1505246274 -1349660534 2044972849 -60489900</internalNodes>
          <leafValues>
            -5.4211097955703735e-01 2.6697832345962524e-01</leafValues></_>
        <_>
          <internalNodes>
            0 -1 118 -1207817494 218497033 571318273 -1392443392
            1812965635 1140850688 1703633026 -2126380020</internalNodes>
          <leafValues>
            -5.1239782571792603e-01 2.8403416275978088e-01</leafValues></_>
        <_>
          <internalNodes>
            0 -1 166 -213909720 1091373092 67592 570454040 -1072716672
            -1073741824 -1039417205 305081194</internalNodes>
          <leafValues>
            -4.7302386164665222e-01 3.3246228098869324e-01</leafValues></_>
        <_>
          <internalNodes>
            0 -1 164 -888812162 286523473 1118839 139038741 537571973
            545914882 595642843 1802994111</internalNodes>
          <leafValues>
            -3.7848725914955139e-01 3.9050993323326111e-01</leafValues></_>
        <_>
          <internalNodes>
            0 -1 33 787424699 -1624901842 -16673 -25886980 268365561
            -1351288898 1962770077 -1777344524</internalNodes>
          <leafValues>
            -3.6993429064750671e-01 4.2603358626365662e-01</leafValues></_>
        <_>
          <internalNodes>
            0 -1 94 1080937700 -805044201 1145562326 1654133061
            1412384523 -1253801856 1428676315 2065479833</internalNodes>
          <leafValues>
            -6.5431869029998779e-01 2.5015053153038025e-01</leafValues></_>
        <_>
          <internalNodes>
            0 -1 41 -1199325990 -2134343533 536940982 -1324627280
            -385680628 147327625 -1291079308 592090907</internalNodes>
          <leafValues>
            -4.8685237765312195e-01 3.2644560933113098e-01</leafValues></_>
        <_>
          <internalNodes>
            0 -1 167 -455670545 -389428989 -650022904 806895882
            -1073026532 1669857832 -1910424900 -1842034084</internalNodes>
          <leafValues>
            -4.9692362546920776e-01 3.1919965147972107e-01</leafValues></_></weakClassifiers></_>
    <!-- stage 18 -->
    <_>
      <maxWeakCount>10</maxWeakCount>
      <stageThreshold>-1.1314508914947510e+00</stageThreshold>
      <weakClassifiers>
        <_>
          <internalNodes>
            0 -1 80 -1576807757 -308358904 -1677632035 -141192827
            650912123 1804107915 1996871654 -36996059</internalNodes>
          <leafValues>
            -5.9041392803192139e-01 8.2956261932849884e-02</leafValues></_>
        <_>
          <internalNodes>
            0 -1 136 -409078392 -824360751 1645302292 2056212888
            -1220427648 -1786695524 -485977725 1459767503</internalNodes>
          <leafValues>
            -4.8795104026794434e-01 2.3524671792984009e-01</leafValues></_>
        <_>
          <internalNodes>
            0 -1 135 550764927 109900463 1392754827 211068291 235610895
            734380175 1006269219 1727068400</internalNodes>
          <leafValues>
            -7.0799601078033447e-01 1.7098483443260193e-01</leafValues></_>
        <_>
          <internalNodes>
            0 -1 61 829540302 64064196 -484765155 1292865785 399380360
            864717469 2133003131 -841514863</internalNodes>
          <leafValues>
            -4.1698294878005981e-01 3.3078494668006897e-01</leafValues></_>
        <_>
          <internalNodes>
            0 -1 86 51751338 -1375809328 1090519498 -203587328 999946508
            1141409801 -132504848 585986183</internalNodes>
          <leafValues>
            -6.7301243543624878e-01 1.9441576302051544e-01</leafValues></_>
        <_>
          <internalNodes>
            0 -1 153 -326087226 2002276366 268489928 270389431 943237420
            2074314804 -2009937589 -1337795765</internalNodes>
          <leafValues>
            -4.7958660125732422e-01 2.8528892993927002e-01</leafValues></_>
        <_>
          <internalNodes>
            0 -1 109 -243768245 -374622959 1006952448 97333509
            -147601535 2014429716 -1165970917 -522665334</internalNodes>
          <leafValues>
            -4.1332092881202698e-01 3.3210039138793945e-01</leafValues></_>
        <_>
          <internalNodes>
            0 -1 38 897906951 1163132967 285984253 939888654 -91554855
            178424483 1225414026 -882458251</internalNodes>
          <leafValues>
            -3.6851349472999573e-01 3.8137125968933105e-01</leafValues></_>
        <_>
          <internalNodes>
            0 -1 93 -1605592575 -553222128 57409796 1948027392
            1998236433 -451211251 310706129 -673295138</internalNodes>
          <leafValues>
            -4.4148978590965271e-01 3.3067309856414795e-01</leafValues></_>
        <_>
          <internalNodes>
            0 -1 170 -527678228 -113045490 -1308604271 1921207841
            -1152742198 -1442594750 -662041969 -1425373477</internalNodes>
          <leafValues>
            -3.8357838988304138e-01 4.0010455250740051e-01</leafValues></_></weakClassifiers></_>
    <!-- stage 19 -->
    <_>
      <maxWeakCount>12</maxWeakCount>
      <stageThreshold>-1.3194609880447388e+00</stageThreshold>
      <weakClassifiers>
        <_>
          <internalNodes>
            0 -1 3 -2133679894 -1982953010 -2062331053 1033175114
            -1392121169 -879198016 -887901769 448990095</internalNodes>
          <leafValues>
            -5.6706881523132324e-01 7.4188560247421265e-02</leafValues></_>
        <_>
          <internalNodes>
            0 -1 28 285741405 -720306176 85463455 -587137024 134748287
            152567944 8405987 -771192696</internalNodes>
          <leafValues>
            -5.8710497617721558e-01 1.8796862661838531e-01</leafValues></_>
        <_>
          <internalNodes>
            0 -1 142 1930023375 -196341271 79952 -1820389090 -108273401
            1061814321 -369090516 1642633763</internalNodes>
          <leafValues>
            -4.7569265961647034e-01 2.6224684715270996e-01</leafValues></_>
        <_>
          <internalNodes>
            0 -1 115 1615184266 1094909956 189071362 1078919707
            -1379493731 1139146760 -875064951 1204019904</internalNodes>
          <leafValues>
            -4.4391784071922302e-01 3.2163062691688538e-01</leafValues></_>
        <_>
          <internalNodes>
            0 -1 11 1646930510 362086534 1342296414 -91864630 1111646360
            -234682302 -729573222 -915248246</internalNodes>
          <leafValues>
            -4.3452349305152893e-01 3.1862798333168030e-01</leafValues></_>
        <_>
          <internalNodes>
            0 -1 87 -1288115006 25641163 956764180 -870494054 1828785881
            -1288110062 -823542007 -857954904</internalNodes>
          <leafValues>
            -4.5376762747764587e-01 2.8758016228675842e-01</leafValues></_>
        <_>
          <internalNodes>
            0 -1 171 926678030 116379370 -14702859 711162347 -1347309853
            368443343 -713575113 1077643247</internalNodes>
          <leafValues>
            -3.4601932764053345e-01 4.0696921944618225e-01</leafValues></_>
        <_>
          <internalNodes>
            0 -1 168 -173499192 1365760865 2078563575 318458618
            -1828725793 -1477493516 51494815 453193899</internalNodes>
          <leafValues>
            -3.4466364979743958e-01 4.3960887193679810e-01</leafValues></_>
        <_>
          <internalNodes>
            0 -1 22 -816460088 -221216645 -1215990957 -184479669
            1147846417 141115400 1742983801 -932447720</internalNodes>
          <leafValues>
            -5.9819662570953369e-01 2.5094774365425110e-01</leafValues></_>
        <_>
          <internalNodes>
            0 -1 77 -821425016 252053640 -1006632693 -972848768
            734693900 1074233352 1462453767 -234295052</internalNodes>
          <leafValues>
            -4.6247437596321106e-01 3.4210059046745300e-01</leafValues></_>
        <_>
          <internalNodes>
            0 -1 79 1041548616 -1756327680 1107419344 1372710925
            597244396 1241647114 50424490 -1433711732</internalNodes>
          <leafValues>
            -4.3986275792121887e-01 3.4582915902137756e-01</leafValues></_>
        <_>
          <internalNodes>
            0 -1 120 -1040135518 -1258028544 436244758 739577873
            -1148677365 1703463446 872965554 -677638144</internalNodes>
          <leafValues>
            -5.9553611278533936e-01 2.6368415355682373e-01</leafValues></_></weakClassifiers></_></stages>
  <features>
    <_>
      <rect>
        0 0 14 27</rect></_>
    <_>
      <rect>
        0 0 25 13</rect></_>
    <_>
      <rect>
        0 1 6 33</rect></_>
    <_>
      <rect>
        0 1 8 6</rect></_>
    <_>
      <rect>
        0 1 11 5</rect></_>
    <_>
      <rect>
        0 3 24 11</rect></_>
    <_>
      <rect>
        0 7 12 12</rect></_>
    <_>
      <rect>
        0 18 27 27</rect></_>
    <_>
      <rect>
        0 22 31 22</rect></_>
    <_>
      <rect>
        0 26 32 22</rect></_>
    <_>
      <rect>
        0 29 14 14</rect></_>
    <_>
      <rect>
        0 57 10 11</rect></_>
    <_>
      <rect>
        0 59 20 12</rect></_>
    <_>
      <rect>
        0 61 15 13</rect></_>
    <_>
      <rect>
        0 64 11 12</rect></_>
    <_>
      <rect>
        0 64 29 10</rect></_>
    <_>
      <rect>
        0 66 5 8</rect></_>
    <_>
      <rect>
        1 1 28 28</rect></_>
    <_>
      <rect>
        1 4 28 16</rect></_>
    <_>
      <rect>
        1 14 27 28</rect></_>
    <_>
      <rect>
        1 16 30 23</rect></_>
    <_>
      <rect>
        1 20 32 26</rect></_>
    <_>
      <rect>
        1 21 30 19</rect></_>
    <_>
      <rect>
        1 73 31 9</rect></_>
    <_>
      <rect>
        2 22 32 26</rect></_>
    <_>
      <rect>
        2 46 18 18</rect></_>
    <_>
      <rect>
        3 6 30 25</rect></_>
    <_>
      <rect>
        3 48 25 17</rect></_>
    <_>
      <rect>
        4 37 32 2</rect></_>
    <_>
      <rect>
        5 12 27 24</rect></_>
    <_>
      <rect>
        5 34 31 3</rect></_>
    <_>
      <rect>
        6 67 29 11</rect></_>
    <_>
      <rect>
        8 12 29 20</rect></_>
    <_>
      <rect>
        9 46 10 9</rect></_>
    <_>
      <rect>
        13 15 21 17</rect></_>
    <_>
      <rect>
        13 20 28 23</rect></_>
    <_>
      <rect>
        14 23 28 22</rect></_>
    <_>
      <rect>
        14 39 8 9</rect></_>
    <_>
      <rect>
        14 69 16 10</rect></_>
    <_>
      <rect>
        15 43 21 5</rect></_>
    <_>
      <rect>
        16 4 28 31</rect></_>
    <_>
      <rect>
        16 9 17 26</rect></_>
    <_>
      <rect>
        16 30 25 16</rect></_>
    <_>
      <rect>
        18 9 25 29</rect></_>
    <_>
      <rect>
        19 7 27 30</rect></_>
    <_>
      <rect>
        19 11 20 18</rect></_>
    <_>
      <rect>
        20 39 15 9</rect></_>
    <_>
      <rect>
        21 29 19 9</rect></_>
    <_>
      <rect>
        22 35 14 9</rect></_>
    <_>
      <rect>
        22 38 14 8</rect></_>
    <_>
      <rect>
        24 37 13 6</rect></_>
    <_>
      <rect>
        25 5 23 30</rect></_>
    <_>
      <rect>
        25 12 22 17</rect></_>
    <_>
      <rect>
        25 35 15 5</rect></_>
    <_>
      <rect>
        25 37 24 21</rect></_>
    <_>
      <rect>
        25 40 16 11</rect></_>
    <_>
      <rect>
        26 26 21 16</rect></_>
    <_>
      <rect>
        26 38 15 11</rect></_>
    <_>
      <rect>
        26 41 14 5</rect></_>
    <_>
      <rect>
        27 6 24 23</rect></_>
    <_>
      <rect>
        27 8 24 25</rect></_>
    <_>
      <rect>
        27 12 24 28</rect></_>
    <_>
      <rect>
        27 24 24 16</rect></_>
    <_>
      <rect>
        27 34 11 11</rect></_>
    <_>
      <rect>
        27 45 11 2</rect></_>
    <_>
      <rect>
        27 50 9 2</rect></_>
    <_>
      <rect>
        29 38 18 13</rect></_>
    <_>
      <rect>
        29 48 9 5</rect></_>
    <_>
      <rect>
        30 9 23 23</rect></_>
    <_>
      <rect>
        30 15 14 13</rect></_>
    <_>
      <rect>
        31 6 16 13</rect></_>
    <_>
      <rect>
        31 53 14 9</rect></_>
    <_>
      <rect>
        32 23 22 15</rect></_>
    <_>
      <rect>
        32 29 22 10</rect></_>
    <_>
      <rect>
        33 2 12 10</rect></_>
    <_>
      <rect>
        33 3 15 18</rect></_>
    <_>
      <rect>
        33 12 22 19</rect></_>
    <_>
      <rect>
        33 14 12 14</rect></_>
    <_>
      <rect>
        33 57 14 3</rect></_>
    <_>
      <rect>
        33 72 14 9</rect></_>
    <_>
      <rect>
        34 14 14 7</rect></_>
    <_>
      <rect>
        34 29 14 4</rect></_>
    <_>
      <rect>
        34 39 7 4</rect></_>
    <_>
      <rect>
        34 48 14 10</rect></_>
    <_>
      <rect>
        35 4 21 12</rect></_>
    <_>
      <rect>
        35 30 14 21</rect></_>
    <_>
      <rect>
        35 62 13 6</rect></_>
    <_>
      <rect>
        36 1 21 33</rect></_>
    <_>
      <rect>
        36 6 14 15</rect></_>
    <_>
      <rect>
        36 21 21 9</rect></_>
    <_>
      <rect>
        37 1 14 12</rect></_>
    <_>
      <rect>
        37 8 21 28</rect></_>
    <_>
      <rect>
        37 10 16 13</rect></_>
    <_>
      <rect>
        37 16 15 14</rect></_>
    <_>
      <rect>
        37 26 21 14</rect></_>
    <_>
      <rect>
        37 32 14 8</rect></_>
    <_>
      <rect>
        37 34 16 12</rect></_>
    <_>
      <rect>
        38 5 12 12</rect></_>
    <_>
      <rect>
        38 22 12 9</rect></_>
    <_>
      <rect>
        38 38 13 12</rect></_>
    <_>
      <rect>
        38 52 5 5</rect></_>
    <_>
      <rect>
        38 52 13 6</rect></_>
    <_>
      <rect>
        38 58 12 10</rect></_>
    <_>
      <rect>
        39 1 20 18</rect></_>
    <_>
      <rect>
        39 3 17 10</rect></_>
    <_>
      <rect>
        39 3 18 26</rect></_>
    <_>
      <rect>
        39 16 11 9</rect></_>
    <_>
      <rect>
        39 20 17 23</rect></_>
    <_>
      <rect>
        39 57 17 3</rect></_>
    <_>
      <rect>
        40 2 19 25</rect></_>
    <_>
      <rect>
        40 26 18 12</rect></_>
    <_>
      <rect>
        40 37 17 13</rect></_>
    <_>
      <rect>
        40 57 14 9</rect></_>
    <_>
      <rect>
        41 14 16 19</rect></_>
    <_>
      <rect>
        42 10 18 15</rect></_>
    <_>
      <rect>
        42 13 14 27</rect></_>
    <_>
      <rect>
        42 13 19 23</rect></_>
    <_>
      <rect>
        42 14 15 10</rect></_>
    <_>
      <rect>
        42 17 9 14</rect></_>
    <_>
      <rect>
        43 11 13 15</rect></_>
    <_>
      <rect>
        43 25 13 7</rect></_>
    <_>
      <rect>
        43 40 6 7</rect></_>
    <_>
      <rect>
        45 27 16 7</rect></_>
    <_>
      <rect>
        45 43 5 5</rect></_>
    <_>
      <rect>
        46 0 17 23</rect></_>
    <_>
      <rect>
        46 12 18 21</rect></_>
    <_>
      <rect>
        46 26 18 14</rect></_>
    <_>
      <rect>
        46 46 6 6</rect></_>
    <_>
      <rect>
        48 17 14 16</rect></_>
    <_>
      <rect>
        48 39 3 5</rect></_>
    <_>
      <rect>
        49 5 17 10</rect></_>
    <_>
      <rect>
        49 34 8 5</rect></_>
    <_>
      <rect>
        49 39 2 3</rect></_>
    <_>
      <rect>
        49 39 3 3</rect></_>
    <_>
      <rect>
        49 39 9 6</rect></_>
    <_>
      <rect>
        50 42 3 4</rect></_>
    <_>
      <rect>
        51 34 10 12</rect></_>
    <_>
      <rect>
        51 40 9 4</rect></_>
    <_>
      <rect>
        51 50 3 5</rect></_>
    <_>
      <rect>
        53 39 3 3</rect></_>
    <_>
      <rect>
        54 1 15 25</rect></_>
    <_>
      <rect>
        54 7 12 17</rect></_>
    <_>
      <rect>
        54 25 15 3</rect></_>
    <_>
      <rect>
        54 42 15 15</rect></_>
    <_>
      <rect>
        54 44 5 5</rect></_>
    <_>
      <rect>
        55 45 4 3</rect></_>
    <_>
      <rect>
        56 1 13 13</rect></_>
    <_>
      <rect>
        56 50 6 4</rect></_>
    <_>
      <rect>
        57 14 12 8</rect></_>
    <_>
      <rect>
        57 39 5 2</rect></_>
    <_>
      <rect>
        58 2 14 13</rect></_>
    <_>
      <rect>
        58 13 14 22</rect></_>
    <_>
      <rect>
        61 3 13 18</rect></_>
    <_>
      <rect>
        61 15 13 7</rect></_>
    <_>
      <rect>
        62 21 12 7</rect></_>
    <_>
      <rect>
        62 47 3 2</rect></_>
    <_>
      <rect>
        62 48 2 2</rect></_>
    <_>
      <rect>
        64 36 12 5</rect></_>
    <_>
      <rect>
        64 41 12 8</rect></_>
    <_>
      <rect>
        65 13 11 13</rect></_>
    <_>
      <rect>
        65 31 11 6</rect></_>
    <_>
      <rect>
        67 11 11 9</rect></_>
    <_>
      <rect>
        72 10 9 14</rect></_>
    <_>
      <rect>
        73 16 9 12</rect></_>
    <_>
      <rect>
        79 16 7 3</rect></_>
    <_>
      <rect>
        81 64 6 10</rect></_>
    <_>
      <rect>
        82 1 6 32</rect></_>
    <_>
      <rect>
        82 39 5 4</rect></_>
    <_>
      <rect>
        90 15 3 2</rect></_>
    <_>
      <rect>
        93 24 2 3</rect></_>
    <_>
      <rect>
        94 30 1 2</rect></_>
    <_>
      <rect>
        94 63 2 4</rect></_></features></cascade>
</opencv_storage>
